/*This file is automatically generated from a Keras model*/

#ifdef HAVE_CONFIG_H
#include "config.h"
#endif

#include "rnn.h"
#include "rnn_data.h"

static const rnn_weight input_dense_weights[1008] = {
   -1, 0, 0, 3, 0, 3, -1, -2,
   -29, 31, 4, 1, -10, 13, -13, 0,
   -5, -2, 0, -8, 14, -2, -3, 5,
   -11, 15, 10, 14, 13, 7, -3, -6,
   32, -29, 6, -4, -25, 26, -18, -20,
   -4, -14, -3, -10, 40, 4, -10, 8,
   -26, 29, 28, 24, 21, 7, -11, -4,
   52, -53, -21, -23, 4, 41, -26, -21,
   0, -17, -5, 6, 48, 23, -9, -5,
   -24, 24, -20, 15, -14, -8, -15, 4,
   12, -12, -73, -23, 48, 30, -42, 42,
   13, 15, -12, -13, 24, 14, -6, -5,
   12, 24, -9, -6, -29, -19, -13, 0,
   -8, -5, -46, -1, -11, 32, -31, 77,
   22, 37, -16, -34, 4, 12, 6, 14,
   44, 29, 33, -1, 7, -21, 6, -5,
   -3, 6, 0, 9, -67, 36, 2, 29,
   8, 16, -13, -13, -9, 21, 13, 30,
   68, 16, -7, 29, 31, -45, -1, 83,
   -47, 41, -48, -30, 24, 59, 66, 29,
   -44, 0, 6, 43, -46, 72, 16, 16,
   -52, -8, 67, 10, -63, -42, -94, 122,
   61, -68, -118, -30, 54, 59, -10, 104,
   -28, 0, 26, -69, 52, -51, -5, 76,
   -64, 32, -51, -32, -63, -2, -127, 77,
   5, -4, -30, 26, -25, 61, -57, 78,
   -54, -21, 24, 26, 99, -16, 14, -4,
   -11, 110, -41, -42, 23, -19, -103, -62,
   30, -12, -52, 39, 32, 8, 43, -17,
   -122, -63, -5, 42, 24, 26, -56, -36,
   75, 68, -11, -105, 66, -6, -127, -127,
   90, 17, -62, -98, -21, 99, 95, -54,
   -128, -82, -15, -16, 85, 4, 2, 39,
   48, 61, -127, 4, 28, -4, -127, -123,
   98, -56, -101, -76, -4, 9, 35, -97,
   -17, -22, -13, -10, 121, 27, -43, 2,
   19, 61, 39, -30, 32, -21, -127, -21,
   42, -21, -101, 53, 28, 89, -85, 43,
   7, 4, -30, 50, 105, -12, -21, 28,
   -3, 83, -34, -126, 44, -15, -127, 40,
   35, 66, -107, -33, -81, -46, -25, 50,
   87, 12, -126, -39, 5, 12, -91, -47,
   58, 47, 66, -124, -120, -62, -127, -12,
   33, 12, -128, -16, 45, 52, -50, 56,
   59, 5, -127, -68, -46, -92, 44, 29,
   22, -8, 81, -69, -61, -46, -126, 2,
   24, -15, -127, 6, -106, 82, -51, 107,
   88, 60, -39, -30, 78, -128, 124, 88,
   64, 39, -57, -2, 49, -28, -127, 88,
   61, 124, -127, 53, -49, 74, -47, 123,
   34, 100, 84, 30, -81, -128, -31, 44,
   25, 20, -29, 28, 127, 33, -127, 125,
   -111, 29, -126, 44, -38, 85, 96, 126,
   18, 41, 127, 72, 7, -34, 60, 38,
   85, 6, -118, -76, 81, -47, -126, 124,
   -1, 52, 25, 71, 43, 40, -2, 117,
   -80, 77, 110, -3, -105, -117, 22, 50,
   126, -32, -127, -58, 97, -17, -59, -44,
   -11, -38, -15, 49, 33, 111, 35, 43,
   -128, 11, 127, 15, 38, -88, 94, 108,
   125, 2, -128, -46, 101, -2, -52, -9,
   -15, -91, -20, -16, -11, 77, 10, 47,
   -127, -14, 127, -9, 0, -78, 26, 47,
   117, 26, -124, 9, 127, -18, -127, 54,
   32, 21, 127, 50, -32, -78, -3, -24,
   -88, -8, 106, 48, -109, 46, -46, -68,
   127, -67, 127, 50, 127, 127, -90, -51,
   -124, -109, -37, 127, 3, 127, 105, 127,
   -34, -128, -128, 30, 125, 4, -91, -26,
   69, 43, -128, -7, -11, 104, -104, -77,
   -126, -112, -64, 114, -100, 89, 75, 62,
   -53, -122, -127, 25, 2, 7, -33, 43,
   -110, -31, 127, 120, -128, -92, -125, -64,
   125, 42, -14, -9, 38, -57, -118, -122,
   -27, 98, 127, 74, -83, 51, -82, -28,
   33, 2, -127, 94, -124, -47, -92, 24,
   -4, 50, -127, -52, -25, 81, 127, -70,
   -12, 9, 12, 31, 50, -26, 31, -33,
   11, 9, 104, 126, -125, 37, 23, 118,
   68, 110, 11, -40, 105, 9, 4, -51,
   -117, -28, -24, 26, -28, 45, -69, 61,
   98, 60, -35, -34, 51, 52, -80, 119,
   -57, 33, -4, 2, 100, 50, -49, 82,
   -75, -45, -29, 27, 47, -4, -78, 66,
   56, -18, 71, -14, 84, -61, -5, -78,
   25, 127, 96, 60, 1, -83, -29, -77,
   -1, 31, -57, -31, -49, 25, -71, -31,
   -21, 26, -50, 48, -25, 42, -41, -115,
   95, 126, 66, 57, -93, 69, 17, -98,
   18, -37, -23, 15, 104, -6, 47, -63,
   -123, 24, -17, 57, -74, -15, 4, -17,
   102, 121, 77, -68, -58, 3, -60, 33,
   58, 4, -3, 27, 23, 34, 32, -35,
   13, 20, 50, 15, -33, 51, -49, 40,
   92, 75, 6, 18, 42, -9, -76, 42,
   -11, 1, -7, -2, -32, 29, 6, -23,
   15, 45, -92, 26, 38, -55, 3, 20,
   -114, -99, 1, 18, 67, -16, 48, 39,
   -37, 26, 9, 11, -21, 12, 12, -15,
   59, 27, 80, 12, -24, 27, -19, 35,
   -127, -127, 8, 29, -51, 116, 9, -34,
   -32, -14, -17, -63, 4, 7, 0, 62,
   38, -40, 19, -36, -23, 127, -29, -32,
   -32, 42, 127, 65, -81, 125, -23, 40,
   1, 114, 21, 76, 50, -12, -39, 77,
   25, 30, -6, 16, -13, 42, 25, 5,
   31, -15, 7, 62, 80, 107, 54, 4,
   -38, 12, 24, 55, -16, -39, 64, 41,
   -27, -105, -58, 45, 13, -113, 60, -14,
   -39, 10, -99, -97, 86, -80, 47, 37,
   -26, -79, 9, -27, -124, -55, 81, -69,
   22, -122, 25, 27, 7, -53, 40, 49,
   40, -56, 12, -22, -18, -42, 127, -20,
   -27, -14, -2, 49, -66, -43, 5, 14,
   62, -29, 32, 46, 2, -32, -4, 3,
   82, 104, 6, -42, -118, -24, 80, -59,
   9, -30, 21, -9, 41, -17, 58, -14,
   -41, -123, 9, 12, -4, 23, 5, -40,
   -74, -79, 72, -46, 10, 8, 12, -52,
   23, 12, 3, 45, -28, 114, -78, -12,
   5, 16, 2, 1, 3, -12, -3, -2,
   -21, 6, -36, -7, 6, 21, -68, -2,
   25, -9, -4, 7, 21, 10, 4, -6,
   -32, 5, 28, -127, 123, 82, -15, -32,
   -52, -33, -8, -37, 2, 112, -2, -68,
   -35, 24, -127, 39, -74, -14, 10, 13
};

static const rnn_weight input_dense_bias[24] = {
   49, 127, -94, 127, 35, -3, -100, -56,
   60, 60, -10, -118, 22, -128, -93, 2,
   127, -95, -53, -128, -128, 127, -128, 127
};

static const DenseLayer input_dense = {
   input_dense_bias,
   input_dense_weights,
   42, 24, ACTIVATION_TANH
};

static const rnn_weight vad_gru_weights[1728] = {
   -8, -2, -123, 127, -128, 90, -117, -128,
   127, 127, 107, -106, -128, 126, 114, -128,
   77, -124, -31, -70, -92, -127, -7, 19,
   -69, -44, -54, 54, -13, -61, -99, -121,
   -77, -38, -126, 20, 14, 22, -10, -87,
   -95, 22, 21, -121, -105, -73, 18, -61,
   -13, 52, -11, 36, 41, 86, 26, 114,
   -2, -7, 56, 9, -20, 43, 23, 68,
   50, -6, 20, 36, 87, -2, -17, 34,
   46, 127, -44, 78, 118, -55, 126, 127,
   42, 127, 61, 107, 39, 46, -116, 105,
   5, -43, 70, 85, 127, 126, -32, -126,
   -64, -20, 87, 84, -58, -16, 40, -125,
   -66, 11, -24, 4, -43, 19, -33, -30,
   -83, 58, -95, 49, -12, -104, -9, 25,
   40, -70, -67, -112, 27, -1, 40, 95,
   -75, 77, -81, 113, 46, 66, -6, 64,
   110, -58, 4, 126, 76, -55, 46, -43,
   127, -14, 127, -34, 127, 58, -28, 120,
   -114, 110, -56, 9, 76, 81, -88, 127,
   127, 127, 74, 127, 127, 119, -127, -127,
   -32, -119, 19, -81, -72, -121, 88, -19,
   48, 2, 99, -128, 40, -125, -78, -58,
   -125, 14, -117, -14, -80, -127, -58, -1,
   -80, -3, 37, 61, -18, -58, -15, -113,
   2, -31, -7, -70, -54, -9, -59, 26,
   -69, 38, 22, -72, 21, 32, 60, 11,
   35, 92, 116, -62, 97, 51, -58, 127,
   23, 127, 6, 102, -127, 122, 127, 104,
   -16, 89, -128, -82, 127, 93, -16, -33,
   -32, 15, 127, -16, -93, -24, 127, 7,
   126, -34, 118, -90, 86, -7, 8, 9,
   10, 79, -64, -28, -13, -127, 127, 127,
   -14, 76, -9, 73, 45, -49, -28, -17,
   -75, 34, -27, -63, 20, -27, 11, -10,
   -47, -58, 30, -27, 73, -4, 13, -61,
   127, -123, 118, 28, -112, 99, -127, 111,
   -126, 126, -26, -72, -123, 127, -65, -95,
   127, 124, -62, 126, -104, -128, -127, -126,
   -86, -59, -93, -76, -12, -62, 41, 79,
   -28, -105, 15, -36, 33, -123, -39, -127,
   -126, -99, -40, -127, -128, -106, -125, -127,
   -82, 18, 127, 53, -61, 31, -90, -127,
   37, -53, 15, -46, -128, -10, 13, -126,
   -62, 81, 80, -78, -83, 127, -25, -6,
   -20, -106, -85, -98, -75, 30, 61, 51,
   -49, 63, -87, -90, 34, -68, 19, -98,
   -107, 36, 90, 61, -42, -115, -128, -128,
   -35, -89, -47, 19, 17, -127, 4, 72,
   -16, -7, 20, 49, 32, -117, 2, 71,
   -31, -66, 53, -94, -37, 88, -80, -68,
   -90, 63, 58, 34, -35, -9, 19, -20,
   -77, -38, 30, 3, -44, -13, 16, 11,
   -56, 14, -42, 18, 0, 24, -15, 87,
   -124, -13, 47, 81, 17, 108, -26, -126,
   43, 112, -58, -16, -125, -12, 52, -5,
   -123, -58, 86, -29, -128, 49, 127, 88,
   56, 51, -112, 35, -79, -54, -36, 21,
   90, -105, -2, -16, -7, -96, 0, -45,
   44, 5, 53, -92, 11, 48, 12, -1,
   86, 50, 5, -36, 3, 7, 21, 90,
   50, -37, 32, 25, 41, -1, 25, 23,
   3, 21, -116, 43, -17, -88, 1, 23,
   -121, -7, 90, -7, 106, 7, -118, -14,
   -30, 32, -26, 126, -113, -1, -39, 127,
   -72, 97, -126, 23, 127, 19, 64, -44,
   -99, -22, -86, -120, -128, 63, -37, -127,
   38, -28, 72, -96, -52, 127, -2, -6,
   56, 113, -35, 9, -70, -127, 70, 17,
   84, 12, -127, 3, 86, -18, 37, 127,
   38, 127, 98, 83, 120, 93, -16, 110,
   127, -126, 9, 127, 69, -36, -23, 108,
   12, 72, -128, 38, 87, -25, 127, 92,
   17, 36, 5, -59, 91, -22, -49, 30,
   112, -44, 50, -126, 57, 125, 50, -1,
   39, 33, 36, 12, -39, 31, 15, -100,
   37, 23, -60, 13, 67, -11, -14, 27,
   -29, 40, 23, 24, -52, -78, 16, -82,
   43, 21, 30, 10, 45, 31, 23, -2,
   -27, 24, -32, -12, 47, -32, -15, 52,
   -1, -4, -18, 12, 6, -24, -3, -16,
   -37, 45, 18, 4, 64, -29, 87, 65,
   44, 66, -107, -32, 22, 19, -26, 112,
   -34, 67, -5, 89, 39, 119, 101, 30,
   51, -39, -33, -30, 7, 48, 43, -25,
   14, -11, 41, 16, -7, 63, -9, 17,
   33, -32, 55, 1, -126, 1, -22, -20,
   20, 4, 41, -18, 8, -1, 22, -59,
   -50, -5, -51, -43, 9, -29, -1, 3,
   8, 28, -16, 7, -5, 13, 8, -13,
   -19, 54, -1, -90, 31, 67, -11, -128,
   71, 2, 18, -15, 125, -112, 67, -73,
   -120, -44, -9, -52, -79, 3, 127, 51,
   -42, -15, -124, 10, -21, 22, -21, 33,
   10, -99, 60, -22, 9, 7, -20, -66,
   54, -97, 50, -102, -55, 11, -36, 40,
   29, -1, 98, 79, -73, 23, -61, -30,
   13, -78, -27, -3, -5, -47, 18, -128,
   -70, 106, -69, -63, -35, 18, 28, 0,
   -116, -78, -124, -127, -119, 75, -103, -123,
   -2, -46, 93, -67, -60, 127, 62, -118,
   -70, -128, 37, -125, -128, -119, 24, 42,
   -16, -4, -57, -29, 14, -49, 7, 55,
   18, -8, -6, -30, 19, 15, 85, -45,
   -46, 19, 47, -48, 18, 21, 69, 18,
   -60, 69, 13, 92, 13, 18, 52, 10,
   6, -69, -21, -38, -52, -21, 18, -61,
   -28, 110, 21, -77, -60, 114, -10, 7,
   -26, -18, -40, 32, -1, 12, -128, 47,
   56, -48, 122, -27, -104, 98, 7, 29,
   31, -125, -38, 72, 116, -60, -20, -28,
   -51, 70, -41, -30, 64, 5, -5, -37,
   -92, 25, 20, 44, -43, 88, -15, 78,
   -33, 24, 33, 14, 14, 12, 75, -25,
   38, 0, -34, 5, 18, 14, 21, 35,
   69, 13, -13, -23, 28, 56, 48, 27,
   -27, 15, 0, 14, 45, 36, -2, 3,
   -36, -127, 36, -12, 45, -1, -33, 70,
   -128, 76, -66, 91, 52, -69, -90, 38,
   38, 127, -73, 126, 9, -14, -126, -47,
   -45, -120, -21, -4, -16, 54, -75, -55,
   125, -74, 42, 14, -37, -51, -47, -29,
   -30, -94, -60, -87, -128, -7, -93, 51,
   44, 44, 10, -14, 9, 31, 9, -32,
   -13, 41, 50, 42, 8, 49, -17, -65,
   27, -40, 32, 13, -5, -46, -15, -31,
   -18, -4, -69, 60, -90, 11, 20, -70,
   -19, -1, 127, -37, 70, 38, -3, -88,
   -31, -14, 13, 3, 8, -94, -28, -37,
   -59, 90, 6, 7, -6, -42, -56, -60,
   -100, -23, 93, 77, -51, 21, -10, -25,
   20, 0, 76, 9, -28, 59, -89, -23,
   -20, 25, 30, -17, -28, 41, 18, -3,
   33, 19, 46, 21, -9, 19, -34, 25,
   -13, 20, -2, 32, 9, 37, 30, 18,
   78, 51, -30, 109, -127, 112, -123, -1,
   90, -7, 98, 110, -90, 126, 126, -45,
   72, -125, -49, -124, -3, -128, 10, -70,
   64, 114, -128, -114, 33, -84, 5, 24,
   59, 1, 52, 10, -8, -3, -66, 82,
   -38, 6, -18, -60, -27, -63, 127, 57,
   -36, 16, -62, 33, 54, 21, -29, 79,
   -7, 11, 39, -19, 21, 13, 62, 76,
   52, -60, 61, 56, 95, 59, -63, 27,
   85, 19, -84, 117, -41, 41, -8, 95,
   72, 20, 125, -106, 22, 42, -65, -128,
   48, -128, -36, -125, -85, -28, 38, -61,
   -36, 127, 42, 45, 66, -20, 35, -82,
   10, 66, 25, -3, -38, -1, -43, 103,
   31, 29, 24, 61, 122, -39, 67, 45,
   13, -32, -2, 48, 52, -3, 20, 31,
   -13, -33, -20, 4, 22, -14, -39, -23,
   34, -39, -14, -1, 39, -49, -27, 38,
   -28, 57, 98, -114, 113, 55, 127, -115,
   5, -127, -126, 127, 127, -128, -128, 122,
   -111, 125, 124, 118, 117, 127, 62, 43,
   -105, -62, 90, 120, -24, 46, -71, -38,
   51, 39, 7, 127, -128, 54, -30, -127,
   121, 39, -36, 126, -22, 83, -128, -128,
   11, -59, -113, -56, 38, -28, 114, 117,
   67, 97, 54, 71, 127, 127, -57, -3,
   127, -126, -93, 127, 76, -125, 1, 16,
   -103, 28, 17, -89, 76, -65, 124, -127,
   55, -122, 87, 127, 127, -3, 61, 127,
   -128, 1, 97, -10, 126, 127, 127, 127,
   -35, 65, 127, 64, -53, 90, -105, -59,
   -72, 78, -121, 52, -94, 127, -10, 127,
   127, 127, -8, 127, 127, 118, -54, -44,
   70, -16, -128, -18, 11, 32, 116, 127,
   14, 120, -42, 89, 127, 124, 0, 127,
   127, -127, -120, 127, 69, -127, -37, 46,
   74, -78, -100, -126, 27, 24, -25, 49,
   -127, -66, -65, 51, 76, -82, -35, 68,
   75, 32, 75, -1, 3, 20, -94, -84,
   -16, -78, 1, 69, -8, -107, 54, -87,
   -38, -11, 16, 12, -32, -38, -23, -48,
   -93, 19, 16, 19, -128, 1, -50, -67,
   0, -22, -19, 24, 27, 22, 9, 45,
   53, -31, 55, 20, 56, 69, -15, 51,
   41, -16, -24, 60, 91, -43, 11, 16,
   -78, -87, 121, -36, -29, 43, 90, 21,
   -128, 101, -126, 45, 40, 126, 95, 40,
   119, 127, -101, 51, 71, -14, -20, -15,
   -26, -127, -59, 9, -95, -71, -25, -57,
   86, -123, -58, 11, -65, -113, 20, -35,
   -33, -29, -26, -48, -127, -13, 2, 5,
   -26, -15, 11, -11, 0, 1, -47, 3,
   -52, 26, 69, -33, -20, -57, 35, 4,
   56, 3, -37, -19, -4, 35, 0, -67,
   76, 127, -32, 94, 31, 1, 39, 125,
   55, 117, 75, 66, -3, 46, -14, 54,
   119, -83, -22, -91, 10, -23, -43, -42,
   -28, -24, 70, -31, -58, -71, 46, -87,
   5, 53, 15, -46, 21, -11, 48, 44,
   42, 98, -33, 79, 122, 25, 32, -56,
   34, -38, -118, 0, 81, 49, 52, 127,
   63, 74, 22, 53, 15, 76, 48, 127,
   80, -121, -40, 126, 107, -6, -49, 92,
   17, -64, -57, -51, -109, -62, 120, 127,
   -128, -9, -51, -99, 127, -108, -126, 67,
   -61, 127, 35, 73, -128, 92, -2, -44,
   9, -41, 9, -18, -19, 7, -127, -73,
   -75, 17, -57, 46, -127, -33, 2, -16,
   82, 2, -16, -14, 28, 28, -127, -128,
   2, -52, -91, -94, -36, -7, 41, 98,
   16, 89, 79, 11, 14, 127, -24, 61,
   127, -128, -25, 126, -9, -14, 57, 25,
   -88, 17, -48, -33, 24, -58, 127, -127,
   85, -32, -126, 23, 77, -88, -17, 60,
   -128, -59, -30, -126, 63, 28, 19, 17,
   55, 60, -29, 18, -10, 13, 30, 51,
   102, -17, -11, 24, -41, -65, 2, -14,
   17, -7, -26, -30, 22, -8, 25, -2,
   -13, 52, 20, 22, -38, -25, -21, -40,
   10, 58, -85, -36, 46, 62, 46, -44,
   57, -33, 42, -8, 29, 6, -19, -31
};

static const rnn_weight vad_gru_recurrent_weights[1728] = {
   -83, -95, 53, -27, 119, 118, -128, -128,
   68, -115, 60, -33, -127, -99, 127, 127,
   -126, -128, -128, -124, 127, 15, -112, 11,
   90, 98, 40, 99, 73, 83, 90, 117,
   56, -60, 75, 86, 72, 95, 111, -25,
   -48, 63, -1, 73, 11, -57, 77, 127,
   90, -100, -128, -128, 76, 127, -16, 17,
   21, 117, 30, 127, 103, 89, 111, 127,
   95, -128, -84, 115, 104, -114, -50, 127,
   -121, 30, 70, -5, -2, -122, 114, -124,
   -35, 53, -87, 22, 11, 96, -77, 127,
   -128, 127, -116, 127, -42, 96, 122, 113,
   29, -16, -93, 33, -110, 38, -25, 127,
   -60, -122, -128, -15, 0, 73, 31, 18,
   -16, -127, 97, -75, 5, -2, -64, 91,
   -102, 105, 127, -38, -98, -24, -128, -128,
   2, -127, -30, -22, -57, -82, -45, -128,
   -92, 127, 12, -127, -128, 58, 125, -115,
   44, 66, 127, 24, 83, 4, 127, -20,
   0, -12, -70, 127, 127, 127, -96, 118,
   82, -9, 95, 46, 74, 124, 10, -8,
   25, -22, 81, 32, -3, 9, -94, 63,
   -18, 30, 14, 11, -64, 67, 6, 84,
   83, 115, 34, -15, 36, -9, -16, -81,
   26, 23, 69, 57, -19, -41, 9, 7,
   17, -22, 54, 4, 13, -82, 43, -10,
   -83, 104, -29, -49, -31, -24, -27, 61,
   -36, 81, -27, -78, -123, 3, 127, -50,
   -48, 105, 32, 59, 114, 103, 8, -50,
   -75, -59, 106, 50, -71, -59, -50, -81,
   -26, -1, -36, -100, -56, -82, 48, 52,
   -28, -42, -15, -44, 54, -106, 1, 82,
   80, -127, -38, -128, 2, -25, -128, 47,
   -71, 105, 127, -4, -112, -89, -70, -128,
   -27, -126, -41, -66, -116, -74, -18, -128,
   1, 115, 107, -83, -81, 15, 51, -128,
   -40, 60, 16, 44, -126, 113, 108, 127,
   -128, 127, -127, 68, 24, 127, 110, 10,
   127, 127, -48, 125, -34, -48, -122, 107,
   108, 0, 96, 33, 107, 17, -17, 113,
   67, 32, 41, 56, -51, 127, -17, 127,
   96, 126, 126, 51, 97, 110, 48, 18,
   16, 34, 0, 4, 127, 3, 19, 32,
   39, 30, 26, -20, 40, 63, 55, -68,
   -31, -64, 13, 36, 1, -32, 40, -20,
   124, -37, -128, 7, -106, -128, -128, 118,
   127, 20, 93, -92, -117, -127, 51, -128,
   31, -126, 34, -115, -128, -53, 72, 68,
   40, 41, 127, 47, 47, 81, 21, 93,
   -67, 51, 13, 94, 64, 54, 127, 103,
   100, 67, 57, 85, 85, 102, -24, 7,
   -23, 42, -89, -9, 39, 96, 98, 111,
   -77, 17, -57, -25, 43, 46, 0, 100,
   55, -64, -51, 127, 71, -22, 84, -24,
   127, 51, 26, 38, 127, 119, -29, 127,
   -49, 109, 17, 127, 127, 97, 67, -46,
   127, -62, 122, 96, 126, 59, -107, -70,
   -17, 41, 46, 19, 30, 13, -62, -128,
   16, 127, -1, 12, -125, 40, -3, 33,
   4, 127, -12, 127, 45, -32, -75, 29,
   47, -72, -128, 50, 75, -70, 82, 127,
   -13, 127, 71, 33, 109, 127, 107, 127,
   127, -128, -25, 127, 106, -83, -9, 77,
   -41, -1, -126, -72, -20, 99, 60, 57,
   -43, -48, -6, -79, -18, -118, 47, -56,
   42, -79, -19, -16, 9, -30, -86, -87,
   -8, 7, 25, 19, -31, 73, -72, 47,
   18, 6, -44, 1, -30, 39, -57, -29,
   61, 4, 9, -39, -15, -7, 11, 55,
   50, 33, -97, 20, 60, 55, -74, 44,
   -11, 56, 47, 4, -11, 82, -7, 2,
   88, -70, -33, 127, 26, 9, -24, 68,
   -128, -99, 127, 49, -58, 101, -14, -128,
   -93, 47, 100, 127, -128, 55, 100, 118,
   -128, -16, -111, 102, 127, 20, 18, 90,
   58, -49, -31, -127, 14, -48, 99, 127,
   -8, 61, 26, -126, 19, -79, 100, -56,
   -127, -30, 126, -115, 30, 88, -3, 127,
   -128, 127, 127, 127, -60, -128, -128, -128,
   118, 73, 62, -128, -127, -128, 2, -128,
   -126, 60, 56, -128, -127, 16, -71, -105,
   21, 59, 127, 17, 71, 11, -10, 126,
   -70, 127, 0, 8, -9, 127, -75, 78,
   109, 127, 10, 120, -5, 47, -44, -29,
   33, 39, -37, -5, -17, 90, 31, 0,
   9, -122, -23, 6, -20, 69, -18, 6,
   -102, -73, -56, -92, -48, -76, 82, 60,
   -35, 40, 52, 23, -51, -29, 11, -79,
   27, -84, 12, -75, -1, -59, -26, -59,
   -128, 27, 6, -127, -60, 50, 17, -11,
   -117, -13, 127, -50, -126, 105, -13, 127,
   -128, 116, -128, 120, 61, 127, 27, 127,
   -91, 127, -127, 125, 96, -127, -11, 77,
   92, 43, -128, -80, 18, 127, 50, 126,
   38, -90, -72, -5, 29, 106, 20, -79,
   72, -128, 127, -128, -70, 55, 96, 30,
   -60, 127, 127, 115, 12, -113, -128, -110,
   32, -67, 106, -128, -123, -112, 5, -127,
   -105, 127, 33, -128, -127, 82, -14, -41,
   93, -112, -102, 71, 108, -2, -128, -94,
   45, -57, 35, 22, -126, -125, 116, -102,
   35, 9, -46, 127, -24, -126, -49, 33,
   94, 40, -25, 3, 1, -57, 29, 73,
   34, 10, -1, 23, -60, -40, 34, -62,
   -79, -8, 66, 46, -1, -44, 20, -8,
   60, -5, -128, -96, 53, 127, 46, 127,
   99, 74, 0, 112, 61, 127, 123, 92,
   125, -128, 2, 127, 50, -106, 16, 127,
   -32, 31, 127, 26, 127, 125, -127, 44,
   59, 51, 64, 127, -128, -126, 127, 127,
   -56, 126, 111, 127, 127, 107, 124, 96,
   -55, -36, -121, -32, -81, 22, -23, 123,
   -36, -101, 67, -42, -58, 41, 87, -43,
   -41, -33, -43, -13, -27, -32, -45, 116,
   53, 0, -76, -34, -55, 14, -117, 16,
   41, 75, -5, 67, -1, 46, -11, 82,
   124, -74, 9, 43, 85, -18, -55, -2,
   -60, -12, -127, 0, -120, -125, -128, -60,
   54, 57, -9, -127, -51, -23, -40, -128,
   -105, -111, -105, -84, -128, -128, -63, 10,
   -40, -1, -24, 5, -21, -9, -34, 5,
   -20, 16, 26, -1, 13, -118, -15, -64,
   -41, -25, -33, -45, -30, -28, -50, 60,
   -41, -60, 19, 15, -69, 70, 9, -36,
   3, 5, -66, 65, -34, -34, 22, -2,
   76, 30, -24, 79, -53, -16, 20, -60,
   127, 127, 85, 127, 111, 121, 103, 127,
   -128, 127, -128, 121, -19, 127, -128, 2,
   127, 127, 54, 127, -16, -6, -128, -28,
   89, 57, 118, 54, 116, 116, -21, 30,
   -52, 105, -127, 88, -40, 127, 41, -13,
   72, 125, 107, 127, 103, 120, -34, 28,
   -1, 27, -90, -32, 127, -21, 127, 127,
   -119, 81, -23, 36, -1, -14, 127, 31,
   -31, -49, -32, 127, 73, -128, 127, -21,
   -127, -74, -128, -22, -6, 89, -127, 53,
   55, 100, -43, -42, -128, -125, 104, -128,
   92, -111, 2, -29, 35, -127, -35, 18,
   -59, 28, -70, -55, 7, 2, -56, -128,
   51, 37, 24, -65, 8, -26, 48, 15,
   42, 1, -46, -93, -64, -16, -56, 32,
   -25, 2, -127, -39, -4, 87, -58, 113,
   74, 102, 23, -12, 16, 126, 48, 81,
   127, -127, -13, 127, 42, -20, -21, 5,
   -46, 37, -126, -25, -75, 34, -128, 125,
   -58, -116, -20, -127, -57, -34, -26, 26,
   -18, -104, -112, -24, -45, -72, -79, 33,
   -60, 5, -12, -14, -25, -47, -10, -98,
   17, 4, 1, 4, -3, -9, 0, -37,
   -89, -17, -92, 78, 35, -45, -87, 44,
   -52, -13, -127, 12, -32, 51, -16, 36,
   14, 126, 18, 42, 51, 126, 107, 79,
   32, -128, 51, 127, 9, 80, 13, 44,
   -66, 16, 10, -8, -20, -7, -27, -84,
   -11, -36, 15, 15, 54, -14, -22, 10,
   -78, -9, -6, -85, -3, -10, -70, -44,
   25, 22, 11, -27, 50, 39, -8, 61,
   -29, 37, -11, 24, -31, 32, -20, 41,
   105, 58, 2, 56, 72, 23, 9, 19,
   -9, 11, -38, 65, 54, -35, -43, 13,
   -10, 24, -11, 61, -43, 6, 30, 60,
   84, -37, -25, 39, 10, -22, 16, -48,
   127, 59, -128, 14, -59, -39, 127, 120,
   127, -128, 127, -127, 126, 62, -105, -128,
   81, -127, 127, -128, -112, 96, 77, 6,
   50, 93, 109, 46, 52, 84, 112, -53,
   -97, 123, -50, 76, 78, 102, 62, 126,
   62, 53, -59, 47, 124, 105, 37, 10,
   -77, 21, 102, 118, 3, -82, 20, -96,
   -107, 15, -127, -128, -11, -66, -86, -32,
   -127, -31, 79, 84, -67, 127, 77, -128,
   104, 36, -112, -37, 30, -12, -36, 89,
   20, 16, 49, -81, -12, -81, 40, -61,
   14, -78, 100, 7, 25, 1, -15, 23,
   2, 19, 13, 17, -52, 0, 33, 6,
   33, -4, -7, -75, 25, -6, 35, -14,
   6, -23, 42, -29, -14, -14, -29, 3,
   12, 20, -78, 46, 30, 15, 37, 27,
   68, 125, -34, 5, 54, 34, 48, -21,
   -9, -82, 15, 9, -3, 11, 67, 38,
   46, 20, -127, -7, -75, 127, -23, 127,
   -56, 127, -48, -53, -52, -85, 105, -127,
   127, -65, -59, -88, -124, -127, -62, -128,
   -48, 14, 86, -55, -47, -2, 46, -97,
   9, 127, 46, -19, -46, 103, 63, 50,
   60, 127, -50, 74, 65, -52, 22, -48,
   -30, -64, -128, 23, 123, 101, 101, 127,
   52, 125, 7, 41, 58, 127, 75, 95,
   122, -127, 4, 127, 50, -14, -100, 50,
   73, 56, -100, -25, 81, -53, 34, -67,
   127, -127, 86, -56, 127, 60, -109, -76,
   -106, -127, 5, -128, -85, 127, -46, -69,
   41, 27, 29, 4, 65, 126, -22, 29,
   -46, 31, 1, 8, 56, 90, -17, 118,
   75, 89, -33, 127, -18, 34, 103, -56,
   19, -72, 127, 33, -89, 36, 46, -87,
   -63, -43, -75, -68, -12, -127, -126, -10,
   -126, 81, 45, -108, 15, 87, 11, 104,
   36, -34, 114, -49, 6, 70, 125, 127,
   -128, 125, -128, 10, 127, 127, -128, 84,
   127, 127, 25, 126, -60, -79, -126, 3,
   6, -19, -127, 76, -34, 51, -88, -107,
   40, -35, 55, -60, -32, -41, -128, -119,
   56, -40, -39, -124, -92, 4, -59, -13,
   73, 17, -16, -1, 98, 51, 88, 127,
   -43, -66, 12, -8, 66, 19, 127, 50,
   127, 38, -128, 34, 64, -30, 113, -38,
   20, -69, -128, -33, 28, -39, -97, -126,
   127, -60, 127, -110, -111, -128, 127, -113,
   -81, -128, 25, -126, -11, 78, 113, 43,
   70, 74, 97, 22, 84, 51, 123, 105,
   -104, -2, -67, 35, 87, 126, 127, 99,
   49, 122, 103, 127, 54, 9, 24, -70,
   -39, 40, -8, -44, -17, -39, -40, -94,
   -33, 37, 43, 38, -33, 11, -72, -55,
   -36, -50, 103, 51, -29, 65, -26, 36
};

static const rnn_weight vad_gru_bias[144] = {
   -95, 82, -126, -7, 9, 101, -112, -128,
   127, -127, 127, -74, -127, -128, 105, -126,
   -127, -128, -1, -126, -43, -75, 126, -27,
   103, 127, 127, 28, 93, 112, 104, 127,
   -3, 77, 16, 99, 80, 89, 82, 118,
   91, 125, 97, 127, 127, 34, 67, 100,
   2, -28, -19, 23, 22, 35, 10, 5,
   -41, 13, -42, 8, -2, 45, 40, 32,
   -7, 5, 55, -4, 7, -16, -2, 34,
   -95, 82, -126, -7, 9, 101, -112, -128,
   127, -127, 127, -74, -127, -128, 105, -126,
   -127, -128, -1, -126, -43, -75, 126, -27,
   103, 127, 127, 28, 93, 112, 104, 127,
   -3, 77, 16, 99, 80, 89, 82, 118,
   91, 125, 97, 127, 127, 34, 67, 100,
   -9, -11, -82, -34, 19, 22, -16, -67,
   -36, 35, -19, 19, -20, 41, 13, 62,
   45, -39, 50, 64, 22, -39, -13, 4
};

static const GRULayer vad_gru = {
   vad_gru_bias,
   vad_gru_weights,
   vad_gru_recurrent_weights,
   24, 24.0, ACTIVATION_TANH
};

static const rnn_weight noise_gru_weights[12960] = {
   -6, -8, 58, 5, 4, -18, -12, 34,
   -15, -110, -81, 23, -67, 75, -53, -25,
   -28, 11, 75, -18, -50, -82, 7, -6,
   18, 17, 93, 17, -11, -8, 62, -109,
   15, 8, -33, -40, 19, -13, -47, 10,
   -11, 13, 21, 9, 11, 17, 14, -21,
   -79, -4, -15, 26, 62, -38, 7, 22,
   10, 54, -3, 10, -29, -19, -19, -41,
   -38, 46, -23, 5, -15, 26, -48, 1,
   24, 67, 0, 13, -21, 10, 43, -53,
   10, -19, 17, 71, 38, 11, 39, 32,
   29, -12, 49, 6, 57, 46, -11, -18,
   10, 5, -22, 36, -8, -8, -24, -13,
   -68, 48, 5, 3, -24, -14, 19, 30,
   32, 16, -1, 63, 9, -15, 89, 10,
   66, 21, 30, -8, 8, 16, 7, -13,
   32, -24, -22, 16, 25, -13, -51, -31,
   50, 23, 13, -12, 28, -7, 49, 53,
   51, 58, 68, 24, 8, 6, 14, -70,
   -14, -38, 19, -20, 55, -29, -32, 38,
   18, 59, 15, 4, -9, 18, 14, -5,
   -56, 71, 14, 51, 27, -11, -55, 47,
   44, 87, -14, -83, -53, -3, -126, -33,
   -7, -5, 23, 59, -4, -48, 78, -36,
   54, 23, 22, -2, -23, -4, 12, 42,
   -2, -4, -57, -11, -35, 72, 38, -7,
   6, -30, -8, 24, -21, -35, -16, 42,
   -8, -4, -45, 22, -43, 24, -28, 37,
   3, 17, 22, 33, -54, -9, -5, -7,
   13, -11, -35, 32, 44, -9, -17, -64,
   14, -42, -30, -25, 48, -32, 33, 57,
   -7, 10, 24, -25, -2, -30, 37, -22,
   -8, -37, 83, -26, 53, 5, -34, -14,
   -30, 38, -12, -51, -49, 5, 85, 27,
   -11, 19, 4, -4, -20, 1, -70, 19,
   -17, -8, 14, -10, -18, -34, 25, -16,
   41, 63, 13, -35, -15, -3, -32, -50,
   -11, -33, 2, -15, 84, 79, 11, -59,
   -1, -93, -13, 8, 12, -16, 32, 71,
   -42, 13, -86, 26, 17, -14, 11, 42,
   -21, -26, 127, -60, 20, -6, 90, -19,
   -46, -6, -25, 17, -1, 21, -66, 9,
   -2, 1, 0, 2, -21, 44, 0, 9,
   15, 3, 11, 17, 14, 10, 31, 69,
   54, -24, 18, 24, -12, -1, 52, -44,
   -14, -36, -6, -36, -2, 8, -26, -33,
   7, -27, 21, 39, -41, 24, 41, -50,
   -18, -22, -47, 46, -16, -9, -10, -4,
   -30, 18, 6, -12, 32, 2, 17, -9,
   -10, -42, -12, -39, 44, 10, 45, 38,
   20, 5, -13, -31, -4, 32, -32, -29,
   -18, -77, 29, 20, 7, -10, 100, -26,
   -37, -18, 41, -14, -30, 48, -3, 13,
   -57, -36, 7, -24, 1, 16, -73, -72,
   13, -34, 15, -37, -1, 65, -19, 38,
   -29, -27, 5, -22, -55, 24, -10, -49,
   -31, -2, -23, -33, -2, 23, -40, 17,
   -20, 2, -26, 17, 24, 16, -7, 66,
   5, -22, -28, -46, 10, 0, 67, 10,
   -5, 1, -13, -4, -16, 30, 33, -69,
   72, -16, -11, 45, 24, 33, -48, 6,
   41, 21, -29, -10, -28, 11, -50, -36,
   -24, 95, -37, 26, 30, 5, -13, -20,
   -39, -5, -68, 45, 7, -24, -4, -25,
   45, -55, -14, 8, -18, -42, 99, -9,
   40, -12, -28, 35, 7, -42, -55, 84,
   0, -12, -8, -11, -27, 3, 5, 14,
   -16, 33, 1, -23, 11, 19, -7, -19,
   -6, 30, -28, 34, 33, -34, 3, -30,
   -61, -5, -20, 32, 24, 22, -73, 14,
   8, 2, 4, 6, 6, 28, -14, -5,
   -20, 8, -50, -11, 21, -4, 1, 49,
   89, -19, -17, -15, -43, -72, -11, 41,
   -35, -64, -1, 52, 25, 23, 62, -70,
   -43, -127, -128, 26, 16, 13, -15, 37,
   -50, -49, 11, 28, -1, 17, -39, -56,
   21, 41, 7, -8, 18, -91, 23, -106,
   8, 10, -120, -24, 36, 11, -35, 117,
   27, 39, -13, -32, 51, -22, -18, -40,
   -19, 9, 24, -14, 29, 13, -33, -29,
   -47, 54, -18, 5, -30, -32, 16, -21,
   -30, -48, 44, -32, 40, 73, -34, -67,
   -5, -15, 40, 65, -7, -16, -15, -35,
   -21, -29, 13, 13, 19, -46, 23, -37,
   3, -45, -35, 37, 45, 26, -3, 13,
   14, -41, 7, -55, 46, -20, 11, 68,
   -23, 77, -14, -11, 16, 18, -10, -10,
   -9, -34, 11, -23, -23, -63, 78, -40,
   21, 32, 50, 25, 33, 0, -67, 26,
   -46, -19, 50, -5, 21, 7, -39, -79,
   -36, -59, -41, -25, -28, -15, -14, -37,
   -16, 5, -21, 58, -10, 30, -8, -16,
   14, -31, -9, -18, 90, -42, -42, 25,
   -83, -24, -127, -23, -7, -16, -11, -8,
   5, 1, 63, -51, -36, -58, -43, -6,
   -27, -41, 6, -8, -29, -29, -32, 26,
   103, -9, -25, -3, 16, -17, -20, -48,
   -29, 0, 11, -28, -3, -11, 24, -59,
   2, 1, 23, 46, 57, -3, 17, -24,
   -36, -12, -36, -17, 45, 14, -56, -52,
   -26, -38, -72, -58, 13, -22, -31, 17,
   -22, 18, -9, -39, -10, -20, 7, -126,
   39, -1, -42, 1, 22, 32, 2, -47,
   -18, -5, -11, -15, 17, 1, 17, -48,
   4, -51, 20, -25, 26, 61, 20, -9,
   -36, 0, 90, 3, 53, 24, 71, -44,
   -8, -5, -20, -10, 24, -9, 11, -5,
   -32, -45, -4, -14, 23, -26, -73, 0,
   -2, -21, 6, 9, 17, 124, 28, -33,
   26, 40, -44, -60, -33, 20, -31, -58,
   9, -5, 47, 29, 108, 39, 35, 9,
   11, 17, 15, 18, -18, 42, 19, -45,
   -11, 62, -56, -21, 8, 1, 43, 4,
   -9, 0, -3, 16, -6, -29, 28, -43,
   34, 23, -66, -5, 27, 47, 37, -33,
   -6, 17, -18, -15, -5, 11, -37, -25,
   61, -91, 52, 17, 101, 23, 4, 1,
   38, 19, 59, -13, -5, 5, -14, -44,
   4, 17, -36, -21, -59, -45, -126, 24,
   -39, 56, 24, -18, -30, 45, -6, -28,
   -6, 10, -22, -3, 36, -47, -2, -38,
   35, -5, 2, 30, -9, -20, -51, -24,
   -11, -9, -15, -12, 63, -6, -4, 1,
   27, 19, 37, 35, 1, 41, -31, 44,
   45, 0, -29, -61, 0, 13, -54, 4,
   -39, -17, -20, 18, 24, -9, 53, 11,
   -1, 89, -33, 8, -24, 105, 2, 67,
   16, -21, -30, 4, -12, 50, -20, 71,
   38, -79, 33, 70, 19, 100, 77, -7,
   29, 8, 111, 38, -9, 37, 72, -111,
   -63, -38, -15, -49, 43, 44, 76, -57,
   62, 12, -57, 51, 57, -12, 35, 9,
   27, 13, 16, -89, -42, -115, -64, 75,
   18, -38, -11, -17, 20, 57, -18, -67,
   -18, 7, -15, -5, -35, 24, 47, -88,
   -42, 22, 13, 55, -24, 6, -14, 97,
   0, -7, -30, 8, -4, -28, 33, -22,
   31, 18, 31, -20, -12, -10, 7, 103,
   -65, 15, 32, -6, -7, -41, 22, -34,
   26, -4, 22, 36, -12, 35, -65, 15,
   -38, 10, 20, -55, -27, 34, -33, -28,
   -13, 8, -67, 51, -34, 14, -99, -17,
   -36, -19, 26, 6, -20, -4, 46, 6,
   -4, -42, -36, 14, 9, 6, 34, -6,
   -1, 40, -13, -45, -30, 1, -5, -46,
   -7, -33, -27, -44, 3, -8, 38, 2,
   -9, 35, -2, -20, -15, 22, 6, 6,
   -45, -34, -24, -37, -6, -40, 21, 27,
   7, 47, -19, 19, 14, -30, 28, -16,
   -32, -24, -20, -2, 5, 18, 29, -29,
   -45, 4, 38, 4, -10, 9, 16, -8,
   21, 1, 24, 4, -3, 13, 12, 10,
   -19, -2, 27, 13, -18, -11, -3, 7,
   -66, -14, -37, 6, 13, 3, 2, 21,
   -38, 18, 13, 9, -42, 13, -8, 2,
   101, -14, -32, -41, 37, -14, 6, -12,
   26, 12, 23, 28, 51, -37, 4, 4,
   17, 29, -29, 43, 14, -10, 8, 3,
   7, -24, 29, -3, 9, -20, -12, 2,
   -15, -13, -6, -27, 20, 13, 15, 8,
   -9, 0, -4, -2, -6, -8, -58, -18,
   -3, 2, -15, 22, -30, 22, 2, -9,
   28, -5, 4, 30, -3, 2, 30, 28,
   -7, 27, -28, -19, -2, -4, 27, 0,
   17, 41, 14, -12, -36, -2, 23, -30,
   28, -10, 37, -30, 37, 15, -18, 9,
   26, 13, -8, 14, 13, 2, 15, 35,
   1, -4, -29, -44, 51, 30, -1, 10,
   -4, -21, 14, 41, 7, 26, 21, 40,
   -5, -14, -35, 15, -24, -35, -34, 39,
   29, 19, -5, 13, -5, 12, 19, 12,
   29, -14, -6, 0, -20, 35, 2, -19,
   41, -20, -15, -30, -5, -23, -29, -3,
   -53, 44, 6, 40, -11, 42, 42, -11,
   -2, 9, 19, 29, -23, -19, -16, -1,
   -13, 19, 32, -10, 34, 28, 10, 5,
   -57, 7, 11, -30, -11, -11, 13, 6,
   16, 6, -21, 7, 0, 13, -46, -11,
   10, -10, 5, 1, -2, 17, 46, 9,
   3, 26, -16, -16, -26, 44, 37, 28,
   23, -54, -15, -12, 17, 18, 39, -24,
   4, 5, -20, -23, 4, 47, -27, 29,
   -31, 30, 23, 12, 0, 99, -20, -1,
   12, -27, 43, -11, -17, -6, 15, -26,
   3, 45, -38, 35, -63, 7, -25, 4,
   -4, 1, -6, 21, 15, 61, -24, 37,
   14, -46, -9, 5, -19, 27, 25, 12,
   6, 10, 34, -29, 37, 12, -23, -6,
   -31, 49, -80, 6, 5, 15, -30, 27,
   21, 32, 47, -15, 22, -2, 12, -6,
   16, 32, -28, 26, 15, -7, -38, 11,
   11, 32, -18, -64, 5, -17, -38, 42,
   12, 16, 26, -3, -36, -17, -65, 16,
   -16, -11, -9, 49, -15, 5, -5, 10,
   -3, 29, -29, 27, 23, -8, -6, -10,
   17, -17, 26, -9, 34, -33, 21, 23,
   35, -1, 15, -6, -42, -3, -6, -21,
   48, 40, 30, -18, 30, -15, 42, 0,
   33, -45, -97, -39, 34, -92, -47, 23,
   12, -34, -67, -12, 20, 47, 6, -5,
   -43, 23, -29, -30, -5, -6, -4, -4,
   41, -55, 94, 24, -28, 17, -17, -32,
   -29, -4, 7, -1, 94, 57, 17, 53,
   44, 26, -19, -22, 39, 52, -126, -45,
   -46, -39, -15, -20, 67, -6, 2, -53,
   -24, 36, 17, -19, -36, -6, -10, -21,
   16, 8, -72, -21, 39, -6, -3, 13,
   12, 4, -29, 13, -11, 23, 75, -74,
   25, -3, -30, 34, -5, 3, -31, -15,
   -40, 24, 24, -9, -16, -1, 7, 20,
   -66, -16, -19, -13, 6, -2, -2, 9,
   52, -32, 19, 5, 17, 2, -12, 12,
   2, 42, -31, 27, -17, 20, 24, -8,
   -34, -5, 39, 39, 23, -6, -37, 32,
   -3, -58, -47, 49, 12, 5, -5, -12,
   13, -4, -2, -14, -41, 31, 35, 9,
   -34, 54, -30, -33, -7, -26, 15, -10,
   52, -33, 2, -15, -22, 32, -7, -5,
   -23, 20, 3, -25, 19, -3, -32, -23,
   31, -23, 40, 8, 12, 18, -15, -7,
   59, 25, 18, 1, -3, 11, 0, -13,
   -30, -5, 1, -35, -1, -22, -7, 47,
   11, 1, 26, -24, -57, -2, -13, -19,
   -3, 17, 25, -1, -28, 2, 1, 20,
   -35, -16, 11, -1, 10, 7, 8, -9,
   9, 41, -69, -21, -49, -49, -30, 51,
   -8, -14, 10, 35, 15, 4, 10, 8,
   15, -45, -10, -26, 18, -16, 9, -53,
   3, 18, -18, 5, 18, -4, 7, 59,
   -5, 18, -6, 64, 5, -10, 8, -5,
   -24, -5, -24, 28, -13, -32, -15, -1,
   28, -29, -15, -36, -24, 2, -9, -15,
   -3, 3, -18, 3, 6, 6, -42, -8,
   5, 35, 21, -25, -33, 20, -16, 11,
   -18, -1, -12, -6, 1, -3, -31, -38,
   0, 19, 7, 23, 9, -8, 38, 7,
   44, -39, -46, 69, 29, 12, 14, 57,
   -17, 4, -49, 34, -24, 53, -56, 25,
   -27, -39, 44, 2, 34, 7, 51, 20,
   32, 2, -25, -44, 17, -42, 15, 8,
   17, 18, 9, 7, 47, -25, -28, -69,
   -6, 4, -19, -63, -9, 38, 32, -9,
   23, -16, 34, -3, 7, 23, 36, -16,
   6, -18, 27, 10, -30, 40, -44, -24,
   -2, -1, -10, -60, -54, 4, -13, -37,
   -91, 22, -3, 0, 17, -32, 0, -27,
   -49, -18, -23, -33, 40, 5, 17, 10,
   -47, -22, 21, -23, -26, -59, -19, -34,
   6, 9, 77, -1, 39, 0, -41, 4,
   -31, 51, 23, 12, -33, 38, 43, -21,
   -7, 1, 24, -18, 33, -19, 28, 27,
   -44, -9, 0, 9, -8, -16, -51, -68,
   -4, 56, 23, -7, -11, -25, 45, 7,
   -10, 0, -5, -24, 21, -20, 22, 38,
   -3, -14, -24, -14, 51, 7, 15, -56,
   7, -7, 32, -10, 16, 52, 23, -60,
   9, -25, 7, 46, 20, 29, -40, -32,
   -32, 35, 25, 1, -11, -24, -37, -23,
   -49, -2, -5, -51, -59, -25, -24, -3,
   15, 32, 31, -19, 6, 7, -12, -5,
   -83, -16, -4, 38, -10, 11, -25, -7,
   -36, 32, -8, -4, -13, -35, -35, -22,
   -38, -15, 27, 6, -16, 32, -10, -20,
   84, -7, 6, -52, 12, -67, -31, -32,
   32, 12, -29, 45, -4, 13, -2, 46,
   -17, 14, 21, 8, -20, -14, -3, -15,
   -36, 0, -42, 15, -23, -14, 24, 2,
   22, -16, -19, -61, -15, -5, -22, 15,
   -21, -14, -10, -9, -22, -9, -61, 1,
   17, 10, 1, 2, 35, 46, -13, -2,
   -72, -37, 27, -45, 61, 52, -66, 43,
   -33, -99, -64, -7, -78, 22, -19, -56,
   -60, -93, -20, -23, -57, 16, 26, -45,
   -1, -19, 80, 2, -35, -101, 8, -39,
   2, 28, -3, 15, -45, -2, -22, -14,
   -41, -47, -4, 17, -13, 64, -78, -32,
   -60, 35, 61, 0, 22, -49, -8, -23,
   -9, 64, 6, 14, 10, 3, 13, 32,
   35, -19, 0, 2, -73, -1, -14, -30,
   22, 10, -35, 57, -11, -77, -6, -30,
   5, 17, -50, -18, 2, 72, 38, 4,
   -15, 38, 30, -4, -13, 35, 22, 45,
   -59, -49, -10, -22, -44, 41, 17, 5,
   -25, 6, -8, -32, -22, -8, -13, 37,
   -10, -18, -28, 75, 11, -6, 36, 16,
   58, -16, 27, 6, -23, -9, -39, -29,
   21, -28, 61, -57, -5, -56, 15, -45,
   11, -7, 26, 14, 2, 51, -32, 29,
   -21, 12, -25, -2, -14, -13, 9, 2,
   1, -39, -7, -17, 2, -13, -30, 25,
   -5, 71, 12, -21, -4, -21, -14, -18,
   -5, -18, 39, 16, -18, 16, -46, -12,
   7, 15, -14, -3, 0, 10, 10, -17,
   -24, -26, 43, -17, -11, -10, 27, -28,
   -25, 6, -7, 4, -29, -27, 42, -11,
   6, 52, 35, 14, 39, 9, 42, 15,
   -23, -61, -6, 46, -13, -25, -6, -17,
   0, 2, -36, 5, -56, -54, -30, 56,
   37, -12, 51, -4, 28, -9, -15, 7,
   39, 4, 12, -63, 18, -30, -36, -41,
   17, -1, 21, 25, -10, 12, 0, 20,
   15, -10, -10, 40, -17, -4, -20, -6,
   17, 45, -32, -7, -16, 36, 17, 34,
   35, 11, -29, -11, -4, -24, -27, -25,
   -9, 2, 9, 22, -22, 27, 5, -3,
   0, 12, -4, -34, 8, 1, -17, 21,
   23, 16, -44, 12, -6, 43, -32, -1,
   -53, 10, 127, -79, 25, -79, 79, -26,
   -39, -76, 2, 4, -23, -68, 16, -17,
   4, 105, -127, 77, -33, -50, -22, 78,
   -11, -58, 50, 85, -27, 1, 36, -9,
   25, -34, 52, -31, 84, -79, 127, -49,
   -3, -33, -19, -34, -7, -93, 22, 1,
   -7, 0, -9, -12, -4, 57, -18, 53,
   13, -33, -13, -20, -19, -2, 25, -32,
   22, 61, -36, 28, -1, 32, -59, 73,
   -11, -59, -127, -6, 22, -41, -8, 23,
   49, 50, -20, -46, -43, 6, 51, -125,
   -65, 38, 11, -4, -49, -6, 0, -19,
   -5, -64, 3, 10, 7, -6, 38, -32,
   29, -62, -10, 20, -30, 31, 21, -25,
   59, 31, 99, 9, -50, -84, -39, -2,
   78, 55, -25, -48, -15, 78, -22, 10,
   2, 7, 5, 14, -7, -66, -58, -32,
   -8, 35, 7, 31, 21, 126, 24, -36,
   -3, 57, 92, -48, 54, 37, 5, -19,
   50, 62, -128, 0, 67, -18, 72, -18,
   -10, 16, 44, 17, -18, 108, -127, -10,
   -16, -44, -24, 10, 30, 96, 50, 4,
   -7, -13, 57, 17, 7, 59, 75, -120,
   -52, 98, -30, 31, -4, -99, 8, 0,
   -1, -46, -50, 0, 33, -30, -7, -59,
   -15, -23, 1, -81, 60, 33, -2, -59,
   11, 35, -22, 18, -36, 49, 26, 74,
   17, -9, -72, 21, 49, -64, -42, 22,
   -5, 45, 17, -24, -1, -17, -45, 125,
   -2, -6, -39, -13, -72, -32, -4, 30,
   25, -16, -13, 61, 1, -40, 12, -16,
   -39, -28, -6, -39, -16, 24, 34, -11,
   -5, 35, 79, -11, -4, -51, -89, 27,
   8, -52, -1, -2, -28, 7, 35, 50,
   4, 3, -51, 53, 27, -9, 62, 68,
   2, 93, -24, 9, 9, -8, -10, 10,
   25, 13, 0, 0, 46, 18, -6, 36,
   -77, -31, -29, -19, -21, 11, 15, -6,
   -6, -6, -92, 0, 28, -25, -10, 35,
   6, 52, 41, 6, -46, 53, 39, 19,
   -36, -18, 10, 47, -20, -10, -13, -7,
   -55, 4, 73, -18, -4, -28, 49, -20,
   -7, 2, -24, -24, -13, -8, -4, -49,
   -4, -47, 6, -30, 12, -22, 12, -11,
   -11, -21, -34, -20, -1, -9, -19, -10,
   -27, -44, 3, -27, -28, -8, -36, -4,
   42, -3, 29, -24, 10, 28, -49, -125,
   -37, -18, -2, 13, -7, -33, 29, 12,
   5, 15, -26, -56, -14, -24, -9, 34,
   19, -40, -27, 30, -34, 9, 2, 4,
   -16, -24, 29, -52, -4, -4, 24, 0,
   -52, -19, 38, -35, -3, 35, -28, -2,
   -54, 20, 23, 4, 16, -34, -15, -16,
   -51, -38, 9, 10, 13, 26, 40, -8,
   -21, 2, 1, -13, -3, -12, 19, 27,
   37, 3, -63, 4, 2, 37, -13, 1,
   -24, 3, 2, 6, -1, -16, -30, -19,
   28, -13, -18, -15, 30, 13, 21, 12,
   13, 4, 53, 13, -27, 10, -11, 15,
   29, -57, -14, 5, 47, 16, -21, -40,
   15, 8, 17, -17, -2, 6, 33, 11,
   11, 11, 28, 3, 11, -15, 0, 60,
   6, -3, 8, 18, -14, 70, -22, -14,
   24, -42, -51, -22, -21, -24, 7, 3,
   -85, -8, -37, -33, 30, -66, -10, -5,
   -29, -14, -20, -14, -20, -11, -10, -37,
   -11, -10, -14, 7, 28, -12, -4, -29,
   17, -32, 38, -14, 40, 32, -16, -26,
   -51, 41, 3, 49, -23, 2, 6, 43,
   7, -25, 4, -5, 14, 0, 44, 19,
   -35, -29, -10, 34, 18, -41, 0, 2,
   36, 32, 2, -63, -26, 4, -41, -44,
   -36, -3, 50, 11, 7, 36, -6, -23,
   22, -4, 49, -16, 6, -68, 19, 27,
   -31, -6, 122, 2, -19, -13, 3, -41,
   -49, -34, -20, 1, 51, 16, -15, -70,
   -16, 39, 48, -19, -10, 15, -51, -20,
   9, -27, 10, 14, -31, 33, 6, -18,
   26, 7, -1, -16, -8, 1, 2, 36,
   27, -8, 16, 7, 9, 31, 26, -35,
   6, -15, 22, 39, 3, 49, -63, 59,
   10, -23, -1, 51, -17, -31, 71, 10,
   59, -33, -10, 30, -6, -13, 28, 16,
   12, -4, -7, -14, 29, 7, 29, -39,
   28, 17, 28, 22, -19, -79, 19, -34,
   19, -45, -21, -39, 19, 25, 15, 9,
   5, 52, 0, 13, 18, -16, 30, -24,
   11, 13, -2, -43, -12, 27, 34, 32,
   -32, 6, 2, -5, 5, 21, 2, 1,
   -35, 70, -19, 30, -46, 42, 26, 8,
   -13, 36, 13, 5, 37, -17, 75, 47,
   24, -57, -20, 53, 43, -12, -23, -10,
   4, 5, -26, 24, 19, -33, -29, 41,
   30, -42, -31, 9, -91, 5, -76, -6,
   34, 28, -7, 86, -26, -87, 38, -3,
   -24, 7, -25, 7, -18, -58, 45, -15,
   4, -23, -4, -40, -3, 4, 45, -43,
   -36, -46, 37, -35, -17, 9, 26, -97,
   -38, -18, 32, 32, 18, -35, -44, 43,
   -40, 68, -13, -46, -45, -21, -68, 5,
   -54, 32, 25, -69, 9, -34, 22, 16,
   -22, -20, 50, 32, 42, -14, 9, 7,
   13, -37, 3, -9, -3, -19, 7, -19,
   39, -10, 28, -13, 4, 15, -15, -2,
   -6, -23, -15, -12, -29, 16, -19, -59,
   -35, 46, 18, -8, -8, -14, 0, 18,
   -3, 38, 7, -7, -34, -12, -12, -3,
   23, -66, 5, 1, -11, 25, 12, 28,
   9, 9, -1, -23, 3, -1, -42, -38,
   3, 16, 42, -4, -27, -9, 6, -1,
   26, -19, -69, -11, 13, 1, 35, 6,
   -12, -9, 17, 7, -23, -13, -1, -24,
   41, 13, 27, 32, 13, -10, 17, -43,
   56, -18, -25, 41, 18, -11, -35, 3,
   -5, -13, 9, 17, -5, -4, 18, -18,
   1, 16, -43, 21, -38, 7, 5, 66,
   1, -25, 51, 2, -15, 6, 68, -14,
   -35, 12, -13, -36, -27, -10, -10, 14,
   5, 59, 11, -25, -16, 12, 31, -59,
   -2, 0, 13, 23, -31, -40, -1, 9,
   -24, 2, -34, 12, 11, 1, 44, -26,
   -3, -46, -30, -6, 29, -20, 30, -21,
   -24, -2, 45, 44, -24, -1, -15, 53,
   23, 22, -15, 26, 8, -36, 44, 7,
   13, 33, 6, 10, 0, 1, 17, -3,
   -10, -23, 11, 12, -56, 104, 44, 31,
   0, -59, -31, 3, -65, 32, 14, -42,
   20, -27, -93, -29, -42, 23, 68, 20,
   43, -8, -58, 0, -9, 58, -41, -18,
   -76, -110, -32, -51, 66, -4, 124, -60,
   50, -40, -26, -36, 70, 40, 67, -19,
   -17, 17, 41, 4, -42, -4, 45, 13,
   8, 24, 6, -29, 0, 8, 9, -43,
   25, -24, 20, -15, 15, 13, -5, -21,
   69, -1, 29, 12, 8, -7, 47, 20,
   -13, 21, -4, -8, 57, 52, -8, 32,
   17, -8, -11, 18, -18, 3, 5, 13,
   40, 25, 33, -4, -64, -37, 23, -39,
   52, 46, 17, -6, 5, -10, -15, -14,
   29, 11, -29, 39, -26, -26, -28, 36,
   -6, 53, -13, -29, -15, 11, -26, 21,
   9, -12, 5, 8, -24, -2, -7, -3,
   14, 32, -39, 12, 7, 6, 54, 60,
   15, -12, 20, 19, -1, 5, 13, 55,
   -11, -15, -20, 1, -12, -19, -52, 32,
   0, -6, 19, 43, -45, -44, 33, -64,
   43, -27, -54, 58, 42, 28, -12, 34,
   -26, 68, -2, 45, -32, 28, 13, 92,
   -66, 41, -51, -38, 27, -70, 7, 39,
   6, 22, -34, 35, 74, -12, -17, -2,
   26, 25, 2, 29, -8, -2, -11, -44,
   7, -8, 3, 38, 1, -6, -23, 18,
   -19, -16, 24, -22, 19, 23, -2, 20,
   -15, -34, 29, -50, -54, -2, 19, -23,
   -15, -13, -4, 14, 16, 18, -128, -84,
   5, 0, -25, 4, -5, 7, -7, 23,
   -42, -23, 21, 59, 12, 2, -10, 33,
   17, -7, -37, 7, -6, 21, 24, 10,
   -14, 28, -9, 19, -45, 36, -20, 21,
   -21, -19, -5, -8, 12, 7, 38, -7,
   67, -3, 1, 3, 47, 24, 24, -8,
   25, -13, -18, 20, -29, 41, 1, 3,
   2, -37, 40, -34, 38, 48, -7, 32,
   -34, 34, 9, -23, -18, 4, -2, -35,
   12, -27, -38, -35, -3, -36, 22, 17,
   -27, -20, -45, 6, -52, -4, -52, 0,
   -8, -37, -50, 28, -24, -18, 1, -40,
   -16, -6, -12, -22, 12, 10, -10, -24,
   -8, -22, -29, 21, -7, 0, 15, -22,
   -11, -18, 35, -4, 16, -9, -9, 6,
   11, -20, -46, 30, 24, -8, -16, -19,
   -1, 5, -5, -52, 12, 20, -11, 31,
   23, 15, 45, 6, -22, 22, 40, 31,
   -9, 6, -24, -25, 16, 18, 15, -18,
   32, 27, -14, -29, 6, 16, 29, -2,
   -42, 1, 6, 9, 14, -2, 13, -11,
   -37, 0, -21, 22, 20, -15, -3, 33,
   -17, -6, -13, -5, -21, -32, -27, -10,
   -38, 8, -16, 17, -3, 24, 10, 25,
   -25, -9, 23, 22, -16, 2, 16, 20,
   -26, -66, 36, -22, -38, 0, -11, -80,
   -44, -76, 20, 23, -68, -30, -45, -9,
   35, -37, 30, 60, 15, 20, 5, -10,
   -40, 34, 31, 27, 3, 28, -53, 34,
   79, -20, -56, 27, -6, -13, -57, -16,
   -46, 31, -4, -47, -27, 17, -9, -16,
   -32, 14, -12, -11, 31, -1, 16, 60,
   18, 52, -32, -25, -16, -1, 22, -30,
   -39, 16, -8, 22, -11, -17, 35, -18,
   27, 20, 32, 19, -38, -30, 51, -28,
   -9, 5, 30, -6, 44, -45, -34, 6,
   -12, 14, 13, -16, 27, 4, 25, 38,
   63, -19, 9, 37, -28, -27, -13, 14,
   -37, 49, -40, -30, -10, -14, 32, -38,
   56, 7, 28, 11, 22, 9, 23, 42,
   -37, -29, 20, -24, 2, 21, 10, -5,
   -14, -32, -5, 28, -13, -40, -2, 4,
   -25, 18, -27, 76, 44, 5, 4, -22,
   -4, 43, 34, -28, -24, 67, 25, -1,
   -11, 52, -15, 17, -42, -26, -44, 58,
   9, 2, 39, 8, -54, -32, 23, 29,
   27, 7, -5, 3, 41, 29, 10, 31,
   -114, -17, 44, 11, -61, 1, 10, 9,
   -31, -39, -18, 9, 19, 10, 31, -97,
   42, -41, -10, 30, 29, 6, 3, 10,
   -32, -2, 12, -9, 14, 28, 8, 10,
   0, 29, 3, 5, 29, -10, -35, 27,
   -1, 8, 34, 75, 34, -12, 9, 15,
   11, -27, -25, -1, -16, -23, 12, 48,
   9, -10, 26, 24, 30, 2, -8, -10,
   -19, 39, 12, 41, -19, 1, -12, 27,
   23, -4, 7, -37, 6, -29, -19, -18,
   -22, -25, 1, 16, 3, -17, 19, -7,
   -40, 5, -33, 13, 24, 39, 30, -47,
   24, -21, -7, 3, -12, -22, 20, -16,
   -11, -27, -40, -9, 23, -6, -30, -10,
   15, 2, -66, 27, -39, -15, -23, 5,
   16, -27, -109, 38, -9, 29, -46, -21,
   20, -35, -110, 20, -1, 0, -7, -67,
   22, 57, -18, 27, -22, -19, 10, 1,
   12, 37, -26, -72, -14, -11, -98, 28,
   18, -19, -19, 12, 18, 0, -5, -57,
   15, 42, -6, 20, 6, 16, 30, -64,
   -6, -15, 5, 29, 4, -20, -16, 3,
   18, -29, 13, -9, 21, 6, -2, 34,
   21, -3, -2, 26, 12, -16, 18, -3,
   -3, -24, 9, 48, -4, 26, 3, -13,
   -11, 1, -6, 9, 26, -14, -13, 8,
   2, -2, -4, 15, -1, 6, -6, 20,
   -41, 2, 11, 8, 32, -4, -1, 31,
   12, 1, -10, -9, 12, 29, 25, 13,
   13, 8, -12, -10, 29, 10, -32, 13,
   -51, 17, -17, 15, 60, -37, -8, 7,
   -28, 42, 9, -15, 4, 47, -65, 5,
   -26, 7, 87, 6, 41, 11, 68, 5,
   -4, 109, -59, 2, 82, 14, -5, 52,
   61, 7, 124, 20, 27, 5, -21, -34,
   -91, -38, -9, 41, 10, 10, 23, 13,
   32, -45, 26, 12, 22, 21, 52, -48,
   -40, -32, 18, 19, -34, 10, -16, -35,
   14, -19, -15, 6, 4, 29, 11, 33,
   22, -41, 1, -12, 5, -9, 18, -22,
   7, -10, -29, -21, -3, 44, -1, 28,
   18, -41, -13, 11, 1, 0, -47, -1,
   -11, 40, -35, -23, 6, 52, 34, -28,
   -10, 6, 29, -21, 16, -1, -12, -4,
   -5, 47, 18, -9, 31, -30, -6, 34,
   -11, 9, -13, -25, -16, -48, 5, -3,
   10, -10, 37, -21, -16, 27, 1, 6,
   14, 12, -18, 12, -13, -19, -31, 25,
   17, 24, 29, -12, 12, -9, -42, -26,
   -13, -12, 14, -23, 4, -12, 25, 25,
   -36, 13, -39, -40, -15, -12, -23, 1,
   -28, -7, -23, -38, -16, -29, -1, 17,
   -11, -30, -58, 7, 9, 23, -47, -36,
   -25, 19, -28, -47, -71, -26, -19, -3,
   23, -23, -57, -23, -4, -25, -44, -36,
   17, -30, -3, -34, 11, 0, 6, -32,
   10, 1, 23, -22, 7, 5, 10, -34,
   -14, 30, 20, -40, 10, -11, -30, -30,
   -24, 24, -15, -38, 29, -6, -18, 3,
   -20, 20, -7, 1, 13, 45, -8, 32,
   -31, 6, 2, -4, 24, 12, 25, 18,
   -20, 27, 4, -39, 36, 7, 1, -39,
   -31, 5, -21, 69, 12, 9, 15, 5,
   28, 6, 2, 60, -17, -10, 23, 39,
   18, 12, -44, 28, 25, 12, 23, 0,
   -6, -8, -4, 7, -12, -21, 13, -42,
   11, 25, 35, -12, 40, 51, 37, -16,
   89, 41, 3, -72, 73, 38, -5, 2,
   11, 103, -8, -86, -52, 2, -6, 57,
   96, -14, 76, 0, -112, -31, 50, -68,
   -8, -127, 27, 35, 127, -44, -3, 23,
   -23, -67, -36, 5, -6, -11, 67, 71,
   -67, 126, 51, -16, -69, -36, -21, 1,
   15, 29, -40, -11, -29, -39, 3, 31,
   22, 8, -1, 35, -50, 16, 5, -16,
   -26, 24, 7, -5, -35, -22, -26, -21,
   -49, 0, -48, 20, -47, -31, -27, 36,
   17, -46, 22, -31, 11, 22, 33, -24,
   67, -13, 27, -10, 19, -14, -18, -21,
   -20, 13, -50, -3, 32, -23, 36, 40,
   3, -10, 33, 6, 15, -26, -27, -4,
   -48, 44, -27, -1, -58, -83, 0, 15,
   -2, -31, -21, -39, -21, 21, -13, -12,
   -4, -41, -17, 14, 84, -29, -31, 3,
   -63, 13, -28, 20, 32, 30, -11, -1,
   19, 30, 29, 28, -24, 1, -34, -58,
   15, 9, 21, -9, 2, -20, -31, 38,
   34, 8, 39, 69, -14, -15, -13, -12,
   36, -35, 24, -30, 24, 14, -12, 28,
   44, -14, -3, -2, -24, -37, 5, -3,
   2, -6, -20, 43, -38, -29, 6, -4,
   -21, -22, -40, 2, 40, -15, -26, 6,
   23, 1, 20, 2, 22, 30, 4, -1,
   1, 6, 8, -38, -27, 2, 25, -26,
   0, 1, 15, 0, -12, 14, -19, -18,
   -28, 1, -3, -11, 22, -6, -5, 5,
   -38, 5, -31, 15, -3, -27, -14, -5,
   18, -35, -21, 22, 21, 14, 28, 19,
   -19, 22, 26, -12, -22, 12, -8, 6,
   16, 13, -10, 22, 11, -7, -39, -25,
   -9, -2, 6, -11, -31, -32, -13, 11,
   24, -5, 10, -2, -12, 9, -22, -8,
   -40, 5, -3, 27, -18, -55, -10, -23,
   -14, 59, 37, -37, -5, -21, 0, -15,
   7, 2, 1, -14, -76, 20, -15, 52,
   26, -87, -23, -5, -36, -11, -20, -58,
   -89, -81, -6, -21, 66, -9, -26, -24,
   24, -5, 31, 6, 16, 7, -43, 106,
   -51, 21, -13, 54, -38, -29, -27, 24,
   15, -5, -56, -29, 34, -38, -9, 4,
   -21, -36, 14, -27, -55, -6, 4, 73,
   -2, -14, -19, -29, 7, 33, -6, -31,
   -44, 4, -24, -22, 32, -42, -2, -23,
   15, 8, -22, -14, 31, 6, -4, 19,
   -56, -11, 39, 66, 37, -29, -72, 45,
   -32, -24, -6, -22, 27, -1, 36, 47,
   11, -29, -16, 45, -18, -54, -13, 1,
   -3, 35, 8, -15, 40, -37, -3, -22,
   -5, -5, -9, -12, -10, -22, 8, 32,
   31, -67, -31, 41, 7, 20, 57, 21,
   -26, -25, 9, 36, 4, 10, -18, -19,
   4, 13, 20, -63, 49, 36, -5, -7,
   29, -68, -75, 12, -31, -16, 98, -23,
   5, 21, -59, 27, 11, 42, 27, -65,
   -19, -31, 52, -50, 32, -23, -70, -52,
   -22, -70, -30, 4, -45, -25, -34, 8,
   56, -42, 49, -12, 17, 27, 38, 18,
   -13, 14, -10, -12, -19, -11, 44, -55,
   29, 16, 12, -35, 27, 3, 27, 25,
   -10, 8, -4, 17, -1, -32, -16, 33,
   -9, -10, -27, 17, -58, 3, -63, 14,
   -9, -42, 16, 34, 30, -24, -65, 23,
   8, 1, -22, -20, 32, 38, 48, -35,
   26, 28, 13, 2, -28, -22, 26, -13,
   6, 26, -32, -24, -10, -32, -1, -14,
   24, -25, 13, -5, -11, 42, 11, -16,
   33, -10, 20, 10, -34, 10, -4, -26,
   -45, -19, 13, 27, -31, 16, -46, -1,
   27, 0, -3, -5, 8, 54, 19, 8,
   11, 53, 39, -26, 17, 73, -41, -44,
   29, -10, 68, 3, -30, -4, -15, 30,
   -37, -23, -44, -51, -32, -4, 6, -34,
   -3, 20, 55, 5, 82, -38, -46, 13,
   -82, -119, 17, 38, -81, 37, -101, 3,
   16, 0, 59, 33, 54, 52, 48, -20,
   -23, -53, -16, 12, 27, 18, 18, -53,
   24, 35, -9, -14, -17, 20, -11, -20,
   -37, -53, -31, 27, -22, 16, 18, 39,
   30, -12, -21, 2, -47, 28, 30, 62,
   21, -7, -45, 6, 47, 20, 40, -10,
   32, 26, -8, 22, -18, 59, 17, -13,
   -9, 17, -8, -12, -37, -6, 18, 7,
   40, 19, -11, 6, -13, -2, 3, 13,
   8, -10, 18, -24, -5, 35, 22, 30,
   -7, -13, 8, 20, -31, 27, -47, 43,
   32, -21, 21, 42, -44, -15, -5, 7,
   21, -13, -14, -7, -6, 35, 12, 9,
   11, 32, -12, 8, -4, -40, -8, -2,
   -4, -32, -17, 9, -32, -18, -5, 40,
   -32, -32, -64, 18, 17, 11, 11, 11,
   -30, -2, -40, 3, -35, 6, 23, 18,
   31, 60, -41, 35, 23, -37, -10, 36,
   -55, 17, -12, -58, 2, 14, -11, -28,
   25, 48, -29, -16, 11, -5, 10, 8,
   15, 18, -5, -6, 4, -23, -46, 16,
   30, 30, -35, -29, 19, 0, 5, 10,
   -21, -29, 15, 7, 1, -23, 20, -1,
   38, 27, 5, -58, -17, 12, 34, -17,
   8, -3, -27, 31, -29, -28, -36, -6,
   -16, -5, 1, -10, -23, 5, 11, -31,
   16, -5, 9, -32, 35, -11, 11, 25,
   0, -18, -11, -16, 19, -29, 13, 6,
   -18, 45, -5, 3, 2, 13, -18, 11,
   12, -6, 16, -3, 34, -6, 5, -16,
   7, -45, -19, -5, -10, 43, -4, 21,
   15, -55, -53, -51, 14, 1, -7, -56,
   -1, 31, 12, -34, -5, -4, 4, -26,
   -64, 79, -21, -59, 78, 41, -104, 25,
   -34, -41, -21, -69, -68, -22, 60, -75,
   -6, -7, -61, -15, 14, -45, 70, -30,
   -96, -41, -6, -57, -68, -74, 0, 34,
   18, -101, 33, -11, 72, -42, -5, -16,
   35, -76, 8, 56, 23, -2, -14, 72,
   -4, 33, -26, 86, 11, -7, -13, 5,
   -11, 27, 21, -52, 19, 37, -34, -2,
   -20, -74, -43, 38, -15, -15, -27, -6,
   -86, -46, -63, 28, 35, 26, -37, 29,
   -47, -26, 10, -6, 10, 9, 11, -42,
   -8, -9, 2, -10, -16, 33, 14, -20,
   21, 4, -61, 12, -2, 17, -44, 4,
   -13, -17, 50, -14, 47, 10, 31, 10,
   -18, 22, 46, -35, 19, -6, 19, 62,
   4, -21, -16, -15, -22, 15, 10, -8,
   -17, 71, -30, -30, 61, 38, -10, 15,
   41, -21, 10, -4, -8, 39, -15, -1,
   -19, 7, 54, -76, -33, 5, 6, 18,
   -16, 25, 98, -13, 33, 24, 27, -60,
   -33, -35, -39, 15, -7, 34, 32, 3,
   -34, -16, 48, 2, 1, 16, 46, 31,
   -11, 26, -26, 43, -26, 15, 12, 35,
   15, 3, 12, -36, 21, -15, -1, 7,
   -37, 6, 40, -4, -3, 17, 14, 0,
   -21, 22, -26, -34, -27, -8, -10, 17,
   -24, 29, 26, 43, 1, 25, 16, 33,
   -15, -17, -17, -2, 22, 40, 1, -4,
   5, -30, 21, 25, -19, -29, -10, 29,
   20, -38, -10, 52, -11, -5, -14, 18,
   33, 9, -24, -17, 0, 14, -2, -39,
   6, 35, -15, 25, -14, 1, -14, -21,
   -17, 7, 15, 0, -60, -23, -1, -1,
   26, -17, 2, -23, -18, 69, -12, 24,
   1, 83, -32, -4, 14, 44, -28, 35,
   -8, -61, -48, 37, 27, -14, 39, 13,
   -9, -43, -18, -19, 39, -6, -8, 23,
   -30, 50, -61, 29, 21, 35, 10, 16,
   -17, 42, 35, -24, 6, -20, -21, 19,
   40, -15, -55, -48, -5, 16, -14, -46,
   -32, 38, -16, -54, -8, 20, 11, -22,
   -4, -18, -32, -15, 5, -5, 24, 28,
   31, -33, -18, -20, -22, -1, 14, -11,
   -29, 19, -23, -41, -7, 5, -9, -27,
   -1, 20, -8, -70, -20, -14, -36, 4,
   -6, -8, -25, 63, 54, -5, -11, -22,
   -23, -5, -29, 3, 3, 20, -15, -38,
   -4, 8, 20, -17, -19, 30, 8, 36,
   -6, -22, -1, 1, -21, 7, 7, 26,
   -26, -28, 24, -16, -14, -18, 3, -9,
   19, 13, -15, -13, 21, 16, 27, 4,
   -9, -1, 4, 3, 3, 41, -4, 6,
   -7, 0, 13, -21, 55, 44, -5, -34,
   3, 11, -2, -30, -19, -26, 4, -6,
   -16, 35, -38, -27, 6, 55, -11, 3,
   -27, 62, 35, -33, -3, 31, -12, -56,
   -45, 16, 13, -16, 14, -8, -59, 5,
   25, -10, 4, 2, 13, 8, -4, -16,
   27, -26, -9, -32, -16, -38, 33, -16,
   -3, -17, 23, -2, 10, 9, -19, 6,
   4, 21, 5, -3, -15, 22, -28, 3,
   17, 16, -40, 47, -15, 0, -15, -9,
   13, 23, -7, -28, -3, 17, -8, 5,
   -18, -8, -5, 20, -33, 17, -2, -33,
   -3, 3, 21, -9, -2, 0, -1, 7,
   36, 6, 16, 28, 19, 1, 20, 19,
   0, 30, 0, 20, 6, -20, -26, 25,
   10, 7, 29, -3, 32, 27, -29, -6,
   28, 3, -3, 16, -26, 4, -2, -21,
   -8, -3, 23, -2, -36, 6, 19, -16,
   47, 48, 25, 9, -29, -78, 47, 27,
   -47, 36, -39, 31, 52, -19, -42, -30,
   42, 63, 107, 44, -40, -22, 37, 23,
   37, 30, 14, 46, -20, -25, 40, -37,
   66, 121, 18, 3, -39, -34, -3, 37,
   -47, 6, -65, -2, -22, 22, -71, 64,
   6, -72, 14, 3, -25, -21, -67, 55,
   -27, 23, -5, 52, 10, -7, 26, -50,
   57, 22, -27, -42, -24, 6, -20, 0,
   -18, -27, -42, 27, 10, -27, 17, -21,
   24, 40, -8, -36, -59, -5, 33, 18,
   -12, -24, 47, -14, 4, 21, 8, 11,
   -43, -20, -12, -12, -6, 12, 3, 17,
   -10, 1, 11, -9, 3, 3, 19, 26,
   -11, 22, 16, -2, -4, -17, 21, 3,
   21, 4, 9, -29, 3, -1, 46, -32,
   -31, 15, -11, -26, 3, -3, -4, 6,
   -4, 18, -40, 4, -14, 0, 26, -6,
   23, 37, -46, 17, -19, -30, 40, 55,
   -24, 7, 41, 30, 1, 12, 32, -15,
   0, 44, 13, 6, -18, -27, 12, 5,
   16, -6, 58, 21, -25, -3, 15, 14,
   10, -6, 13, -20, 33, -8, 46, -10,
   14, -5, 9, -34, -5, 12, -22, -4,
   34, -37, 8, 28, -23, -31, 30, 13,
   -4, -14, -29, -12, -27, -26, 10, -4,
   -7, -4, -9, -30, 26, -12, -8, -14,
   -7, -5, 11, -11, 24, -9, -35, 2,
   -39, -7, -4, 17, -25, -4, -6, 1,
   -12, 0, -18, -32, -4, -19, 26, -21,
   22, 20, -6, 5, 26, -10, -2, 15,
   -13, -1, 30, -19, 16, 4, 25, -29,
   -33, 21, 17, 15, -11, -28, -36, 28,
   -4, -14, -6, 12, 8, -3, -28, -20,
   -42, 0, -28, 28, -45, 23, -12, -12,
   -26, 15, -25, 0, -4, 6, 19, 10,
   8, -10, 6, -4, -17, 15, 66, 14,
   -13, -7, 34, -32, -30, 81, -20, -11,
   -11, 0, 27, 3, -4, -6, -30, 17,
   -20, -20, -2, 31, -30, 26, -31, -3,
   65, -63, -14, -12, 16, 2, -23, -1,
   36, 7, 27, 19, -23, 29, 36, 17,
   37, 7, 0, 2, -23, 15, 26, -23,
   8, 4, 11, 2, -30, -8, -13, -26,
   -36, 11, -32, 23, 29, 40, -5, 17,
   27, 39, -6, -17, 6, -2, -16, 19,
   -33, 3, -13, 37, 11, 12, -4, 2,
   28, -9, -2, -22, -4, 34, -11, 12,
   -44, 26, 29, -51, -14, -16, 3, -8,
   32, -40, 7, -27, 2, 24, -25, -14,
   -30, 21, -15, 6, 18, 14, 25, -27,
   14, 14, -16, 7, 18, 17, 17, -1,
   24, 13, 24, 9, -8, -4, -11, 5,
   28, 12, -5, 10, -19, 47, -19, -41,
   28, -17, -23, -12, -120, -92, 59, -18,
   24, 25, 4, 7, 0, -71, -77, -8,
   -7, -30, 50, 4, -69, 30, 26, 8,
   36, 27, -127, 16, -50, -27, 75, -2,
   112, 95, -10, -22, -6, -62, 44, -64,
   56, -3, -51, -78, 6, -47, -14, 4,
   20, -25, 45, -18, -32, -2, -20, 66,
   -16, 1, 10, -4, -4, -5, 14, 2,
   42, 30, -4, -16, -15, 22, -11, 13,
   -1, 13, -12, 14, -7, 0, 23, -38,
   0, 1, 10, -51, -64, 3, 45, 14,
   -63, 23, -1, -47, 15, -44, -32, 4,
   -46, 21, 60, -2, -15, 24, -13, 26,
   21, 3, -13, -25, 0, 21, -16, 14,
   11, 34, 4, -12, 2, 18, -6, -12,
   33, -2, 8, -17, -4, -22, 32, -29,
   -20, 36, -12, -3, -23, 19, -31, 5,
   22, 2, 39, -21, 27, -62, 27, 4,
   -69, 2, -69, 23, -14, -31, 4, 42,
   -81, -55, 19, -127, -7, -45, 7, -9,
   -120, 33, -32, -62, 11, -1, -55, 1,
   -59, 58, -57, -81, -85, 35, 21, -2,
   43, 20, -54, -42, 28, -12, 6, -10,
   -16, -122, 0, -21, -66, -5, 7, 66,
   -21, -4, -2, -19, 9, 26, 15, -22,
   -1, -50, -25, 4, 5, -7, 12, 64,
   0, -28, -10, 15, 4, 5, -26, -24,
   -34, 25, 50, 9, -17, -33, -3, -19,
   -49, -45, -9, 18, -20, -4, -23, 12,
   -39, -26, 0, 33, 18, -2, -19, -61,
   -18, 2, 32, -10, -4, -31, -25, -44,
   -47, 2, -12, -4, 2, -8, -24, -16,
   16, 8, -20, -11, 3, 27, -30, 7,
   -3, 33, 51, -20, 14, -25, 31, 8,
   -11, -20, -2, 4, 23, 12, 9, 32,
   -22, -11, -12, 22, -1, -18, 17, 4,
   26, -5, 15, -11, 10, 8, 52, 36,
   16, 17, -3, 54, 38, 24, 24, 49,
   47, -4, 59, 44, -40, -25, 69, -12,
   53, -103, -23, 16, 43, -54, 121, -43,
   29, -5, 7, 85, 65, 37, 110, -30,
   -15, 34, -37, -63, 79, 30, -87, 15,
   30, -46, -22, -3, -47, -12, -5, -26,
   22, 16, 36, 26, 25, -14, -15, -18,
   -26, -30, 14, 10, -19, -26, -3, -25,
   25, -3, -19, -34, 5, -11, 16, 32,
   16, 40, 16, 15, 10, 11, 5, -10,
   39, -14, -9, -14, -15, 16, 3, -49,
   20, 9, -7, -22, 16, 55, -1, -23,
   21, 19, -36, 31, -4, 1, -21, 51,
   29, -16, 6, 18, -39, -17, -14, 7,
   -1, 29, 31, -16, 17, 45, -47, -16,
   -26, -18, 39, -28, -33, -15, -6, -40,
   -25, 26, -6, 13, -5, 42, 23, 19,
   8, 20, 5, -7, 15, 2, 15, -12,
   5, -6, 18, -14, 2, 4, -5, 14,
   18, 11, 0, -9, 2, 10, 6, 15,
   17, -3, 10, 14, 18, 13, 3, -10,
   -2, 8, 5, 1, 0, 9, 0, 3,
   -13, 5, 2, 15, 2, -14, -6, 8,
   -16, -6, -4, 5, 13, 2, 7, 7,
   23, -10, 18, 13, 7, -7, -9, -3,
   -17, -11, -13, -7, -16, -20, 26, -15,
   -10, -11, -23, 1, -6, -17, -7, 15,
   5, -1, 9, 3, 17, 33, 10, 41,
   30, -11, -2, -4, 20, -10, -12, -6,
   1, 3, -7, 12, 6, 3, 4, 9,
   30, -12, 0, 28, -1, -3, -2, 2,
   -22, 7, -6, 18, -8, -3, 1, 1,
   9, -4, -3, -25, -28, 0, -3, -1,
   -6, -41, -1, 24, 4, 0, -20, -1,
   4, -15, 15, -2, 24, 6, -9, -17,
   12, -25, -1, 3, 14, 10, 8, -16,
   22, -3, -16, -16, -3, 16, -4, -15,
   8, 19, -5, -17, -12, 25, -9, 20,
   7, -8, 28, -1, 14, -23, 7, -11,
   -11, -22, -6, 0, 23, 27, -5, -1,
   4, 4, 0, -6, -10, -41, 2, 1,
   0, 12, -4, 28, 26, -5, -7, 7,
   3, -6, 20, -26, -5, 33, -10, -20,
   -2, 15, -10, 19, -2, -23, 19, -11,
   -20, 1, -10, -5, -17, -2, 13, 11,
   1, 0, 15, -9, 22, -27, 5, 11,
   6, -8, -40, 18, 23, -21, -10, -15,
   30, 8, -25, -53, 4, 20, -6, 3,
   9, 16, 8, 24, -14, 23, -7, 12,
   -27, 27, -36, -24, -1, -13, 34, 15,
   2, -3, -15, 18, -41, -18, -16, -7,
   -1, -47, -17, 22, 39, -5, 12, -2,
   21, 3, -9, 17, 18, 12, -12, 22,
   -1, 22, -10, 24, 0, 22, -4, -21,
   15, -6, -38, 9, 10, 69, -1, -3,
   -4, 26, -37, 0, -32, -13, -8, 56,
   20, -7, 36, -24, 26, 31, -29, -20,
   -15, -13, -2, 24, 34, -12, 5, 4,
   43, 0, 15, -1, -3, -19, 8, 18,
   31, -14, 28, -26, -5, 9, 33, 6,
   28, -34, -4, 14, 31, 52, 8, 48,
   37, 30, 12, 32, -9, 0, -26, 2,
   -10, 17, 19, -13, -17, 20, 10, 3,
   -15, 7, -11, -1, 12, -27, 25, -27,
   -19, -31, -42, 8, 15, 5, -7, -25,
   26, -21, 15, 31, -29, 31, -11, 1,
   10, 35, -2, 0, 14, 51, -4, 20,
   -17, 27, -42, -62, 16, -1, -12, -4,
   -31, 3, -45, 47, -29, -41, -31, -13,
   -25, -21, 28, 6, 43, 4, 34, -3,
   37, 18, -41, 0, 2, -5, 2, 20,
   -20, 116, -23, 2, -19, -1, 23, -13,
   -6, 10, 26, 20, -2, 46, -57, 4,
   -13, 29, 7, 10, -29, -41, 20, 10,
   7, -18, -9, -9, 15, 49, -29, -34,
   -22, 39, 9, 39, -21, 20, 2, 3,
   36, -13, 17, -2, -6, 40, -9, 16,
   28, -42, 58, -35, -15, -10, 36, 66,
   -14, -50, 0, -7, 10, -5, 23, 122,
   29, 0, 7, -1, -47, 19, 44, -15,
   37, 7, 13, -14, 11, 0, -24, -12,
   59, 36, 48, -9, 4, 48, 35, 1,
   5, 23, -48, -25, -26, -12, -32, -9,
   -26, -42, 63, 45, -38, -11, -8, 13,
   51, 1, -26, -1, -6, -36, -7, -6,
   10, -1, 23, 6, -9, 24, -32, -45,
   -8, -1, -35, 12, -3, -8, -34, -19,
   -33, -1, -75, 9, 7, -4, 12, -11,
   33, -13, -8, 39, -1, -8, 5, 12,
   -47, -16, 31, -10, -23, -20, 8, -8,
   -7, 14, 65, 11, 25, 20, -33, -42,
   11, 38, 83, 35, -23, -25, 8, 32,
   -5, -10, -26, 22, 27, -84, 12, -15,
   -2, 19, 26, 11, -15, -23, 25, 15,
   31, 12, 9, 4, 15, 35, -23, -19,
   -20, -19, -37, 50, -22, -32, 3, 35,
   19, 26, 24, -17, -22, -42, -32, 41,
   17, -2, -29, -3, -56, 28, 51, -32,
   -22, -13, 3, -3, 43, 18, 7, -18,
   12, -6, 0, -47, -31, -2, 7, 13,
   27, 27, -14, 8, -11, -9, -2, -11,
   -43, 13, -13, -66, -17, -31, -11, 11,
   26, -48, 7, 12, -30, -93, -8, -7,
   32, -25, 19, 61, -27, 9, -35, -37,
   35, 4, 8, -36, -19, 50, -43, -12,
   24, 7, 34, 23, 24, -14, 3, 5,
   43, -3, 28, -19, -20, 3, -10, 9,
   -29, -17, 73, 41, 18, 11, -18, -9,
   27, 4, -12, 17, 7, -3, 5, 7,
   11, 45, 87, 7, -42, -1, -7, -12,
   -36, 16, -20, 4, -2, 35, 50, 18,
   9, 2, -8, 26, -1, 10, 21, -1,
   24, 18, -33, -16, -2, -16, -16, -9,
   -39, 15, -68, -10, 21, -29, -1, 6,
   6, 29, 19, -42, 25, -11, -63, -61,
   5, 36, -46, 14, -25, 31, -4, -28,
   -56, -15, -36, -8, 16, 19, 13, -11,
   -23, -17, 39, -25, -21, -28, -33, 4,
   -27, 28, -14, 20, 24, 1, 17, -21,
   -28, 58, -26, 34, 8, -27, -20, 3,
   4, -18, 17, -11, 18, 9, -18, 38,
   13, -3, 1, -34, -13, 29, 72, 19,
   -4, 35, 8, -39, -31, 29, -50, 17,
   19, 0, -47, 26, 47, -12, 13, 5,
   17, -7, 23, -26, -14, -2, -13, -15,
   5, 86, 10, 53, 21, 126, 26, 30,
   7, -26, -70, 13, -35, 62, 9, 125,
   3, -76, 33, -77, -82, 106, -1, -28,
   -64, 6, -67, -11, -88, 36, 33, 29,
   -10, -29, 17, 33, -78, -22, 79, -45,
   74, -2, 41, -18, -12, -22, 49, 118,
   -18, -37, 28, 26, -4, 46, 29, 49,
   13, 18, -51, 7, -14, 44, -74, 31,
   24, 65, -23, -3, -59, 127, 2, 30,
   -21, -2, -30, -36, 37, 25, 28, -26,
   3, -48, 27, -46, -32, 54, 96, 75,
   17, -12, -18, 62, -14, -49, 34, -87,
   -37, -29, 22, -1, -30, -50, -47, -9,
   36, -13, -16, -27, 3, 56, 22, 22,
   -38, -11, 13, -46, 29, 127, -73, 2,
   -39, 69, -112, 31, 7, -43, -29, 127,
   -65, 75, 48, 43, 59, -21, 29, 52,
   40, 47, 36, 125, -52, -43, 21, 25,
   -37, 37, -21, -61, 44, 37, 84, 45,
   -2, 71, 88, -24, 8, 6, -128, 64,
   10, -75, -33, -9, -15, 73, 87, -16,
   32, -21, -2, 25, -42, -4, 17, -39,
   -54, -29, 61, -12, -119, 1, 52, -52,
   20, -20, 75, 79, -3, -29, 61, 19,
   58, 25, -1, 63, -127, 90, -66, 19,
   -5, -1, -93, 16, -8, -71, 98, 81,
   57, 15, -108, 24, -126, 106, -28, 32,
   22, -24, 0, 70, -23, -127, -73, -27,
   72, -19, -88, -119, -25, 21, -8, 46,
   -120, 24, 9, -7, 28, -35, -16, -4,
   2, -108, 31, -88, -41, -90, -59, 12,
   6, -57, -15, 10, -16, -75, 15, 5,
   -7, 40, 15, 30, -51, 62, 8, -44,
   94, -30, -66, 45, 4, -25, 20, 30,
   -33, 24, -40, -5, 25, 15, 11, -23,
   59, -41, -58, -51, -4, 1, 37, 120,
   -32, 50, -30, 58, -28, 21, -34, 36,
   -10, -21, 89, 39, 72, 34, -13, 122,
   21, 79, 49, -51, -65, 17, 19, -9,
   24, 19, 1, 12, 41, 25, 1, 19,
   -73, -8, 26, 51, -112, -97, 0, 13,
   76, -5, 17, 102, -12, 30, 38, 55,
   -2, -44, 41, -32, -2, 42, 12, 38,
   -13, -2, -42, 10, 9, -83, -20, 8,
   3, 59, 19, -35, -121, 108, 18, 25,
   7, -20, -38, -52, -62, 53, 32, -17,
   45, 12, 73, -10, -11, -10, 25, -1,
   49, -49, -30, 87, 58, 11, 74, -39,
   20, 66, 54, 27, -67, -36, -33, -20,
   -9, 44, 20, -32, 69, 0, 4, -11,
   15, 27, -36, -50, -75, 55, 6, 78,
   -28, -8, -2, -17, -39, 20, -21, -10,
   -29, -70, 22, 35, 46, -12, -7, 0,
   49, -45, 8, 28, 5, 11, -44, -5,
   116, -71, 1, 40, -72, 79, -27, -46,
   -3, -27, -61, 85, 1, 18, -66, -58,
   86, 29, -31, -105, -122, 22, 59, -75,
   -51, 39, 17, -10, 115, -25, 126, 32,
   -59, -74, -32, 55, -39, 125, 121, 127,
   68, -23, -19, 11, 1, -5, 26, 74,
   -11, -69, 125, -14, 37, 31, 25, 68,
   22, 20, 52, 29, 51, -13, 10, 127,
   12, 125, -22, 21, -104, 9, -34, 4,
   -40, -10, -32, -6, 77, 65, 1, -70,
   41, 70, 124, 19, -13, -67, 5, -68,
   80, -18, -18, 16, -9, 47, 14, -125,
   0, 123, -14, -19, -18, -52, -72, 13,
   -16, -4, 94, 68, -76, -72, -43, -80,
   18, 57, -97, -67, -81, -13, 10, 115,
   -83, -7, 14, -35, -15, 5, -90, 44,
   -77, -69, 69, 52, -16, -6, -33, -19,
   63, 53, 38, 13, 16, 10, 5, -109,
   -18, -28, 110, 5, 53, 123, 75, 23,
   -46, 23, -103, 121, -44, 76, -3, -111,
   29, 57, -48, 68, -38, -78, 8, -1,
   17, 87, -71, -8, -22, 25, 94, 34,
   -35, -27, 32, -4, 127, 44, 127, 35,
   61, 51, -92, 6, -5, -68, -50, -34,
   1, 40, 13, 16, -40, 127, -11, 2,
   -15, -57, 54, -20, 56, -39, 13, 37,
   16, 110, -104, 26, -127, -50, -3, 91,
   -18, -45, -25, -62, -11, -18, 4, -112,
   42, 23, 116, -93, -115, -38, 39, -66,
   -60, -27, -31, 87, 42, 10, 75, -27,
   -51, -119, 26, 17, 3, 19, -10, 38,
   -4, -24, 53, -46, 86, -82, 12, 3,
   49, 81, -13, 36, -125, -66, 29, 105,
   -5, -27, 85, -57, -4, -67, -42, 63,
   -25, -54, -41, -21, -51, 46, 41, -36,
   34, 10, -16, -45, -14, -62, 71, -127,
   -106, -3, 7, -3, -18, -4, 30, 1,
   16, -21, -37, 70, 31, 99, -11, -5,
   -32, 23, 15, -30, -64, -41, 63, -30,
   20, -9, -104, 12, -47, 89, -100, 23,
   87, -6, 44, -7, -63, 18, -30, 35,
   24, 10, 9, -13, -61, -95, 0, 15,
   88, -14, -5, 64, -14, 127, -35, 24,
   -20, -12, -58, 7, 6, -26, -20, -50,
   20, 60, -17, -13, -126, -62, -33, 127,
   -18, 32, 19, -55, -51, -7, 126, -53,
   -116, -25, 5, -83, -50, 38, 48, 6,
   75, -9, -11, 126, 20, -54, -1, -41,
   40, -127, -14, -48, 12, 127, 2, 2,
   9, -56, -47, -77, 0, 6, 81, 24,
   23, 49, -54, 23, -96, -59, 94, 127,
   51, 26, 65, -5, -39, -22, -49, 34,
   7, -51, 38, -31, -15, 5, -9, -49,
   39, -53, -35, 105, 1, -32, -6, -41,
   73, -56, -120, -45, -124, -34, -8, 87,
   -11, -62, 66, 45, 46, -42, 65, 21,
   6, -87, 59, -20, -82, 9, 55, 26,
   49, -19, -127, -32, -15, -22, -17, -9,
   43, 1, -126, 29, -83, 8, -38, -36,
   -1, -79, 80, 34, -9, -24, -17, 46,
   -33, 22, 99, -44, 61, 127, 20, 60,
   15, -6, -66, 16, 62, -3, 127, 127,
   14, 60, -113, -16, -106, 68, 2, 127,
   -4, 14, 59, 19, -58, -45, -5, -70,
   -14, -57, -126, -53, -26, -13, 5, 36,
   -20, -48, 18, 15, 42, 5, 39, -55,
   -43, -72, 14, -50, 0, 127, -30, -10,
   0, 9, -56, -80, -75, 98, 52, 6,
   -30, 51, -99, -18, -89, 4, -9, 127,
   -42, 81, 39, 5, -28, 19, -10, -118,
   7, -59, -126, -3, 11, 10, -7, -41,
   -4, -18, 0, -26, 35, -72, -58, -2,
   118, -32, 38, -73, -88, -54, -29, -37,
   -20, -33, 2, 19, -36, -116, 60, -67,
   -10, -81, 1, 1, -127, -40, -10, -12,
   26, 59, 13, -4, 53, 16, -52, 125,
   3, -93, 124, -113, -85, 12, -27, -47,
   36, -41, 3, 48, 15, 9, 20, -87,
   -26, 52, -32, -34, 63, 61, -35, 48,
   -16, -3, -33, 88, 17, 28, 30, -83,
   111, -10, -127, -11, -127, 80, 30, 127,
   9, 38, -56, 14, -27, 127, 3, -21,
   22, 2, 50, -125, -51, -54, 19, 5,
   -27, -16, 59, -57, -70, 33, 60, -108,
   -107, -13, 74, -4, -82, 123, 4, -26,
   73, 75, -19, -51, 35, 72, -20, -35,
   36, 61, -47, 17, -114, 15, -76, 124,
   30, 65, -58, 10, -81, 62, -41, 51,
   -26, -106, 52, 75, 22, 4, -46, -13,
   34, -55, 39, 59, -118, -39, -72, -64,
   -12, -67, 36, -48, -34, -128, 56, -73,
   21, 42, -3, 33, 44, -6, -17, 63,
   -11, 26, 73, 13, -34, -114, -63, -19,
   36, 56, 11, 2, -46, -12, -81, 25,
   -76, -11, -77, -44, -53, -2, -8, -26,
   -9, 60, -46, 1, -23, -1, 58, -81,
   13, -88, -22, -11, 22, -120, 47, -18,
   10, -60, 45, -19, -3, -56, 127, -29,
   60, 15, -64, 54, -128, -4, -4, 12,
   68, -1, 33, -43, 1, 97, -30, 9,
   -11, 75, 102, 63, -79, -74, 13, -36,
   44, -10, 44, -30, -53, 62, 57, 22,
   -30, 42, 39, -55, -7, -9, -108, -11,
   6, 60, 34, -13, 11, 106, 127, -67,
   90, 14, 33, 68, -128, -5, -23, 36,
   127, 61, 29, 19, -59, 14, 33, 97,
   24, -46, -55, -4, 41, -22, -14, -4,
   44, -21, 82, -32, -23, -70, -84, -27,
   -87, -21, -36, 102, 36, -64, 42, 46,
   -69, -18, -124, -58, 5, 94, -13, -128,
   -81, 38, -89, -24, -9, -102, -59, -34,
   -27, 2, -38, 15, 28, -29, 59, 16,
   63, -86, 127, -13, 48, 123, 70, 53,
   -11, 23, -70, 116, -119, 4, 97, -50,
   -44, -40, -20, 35, 90, -124, -17, 46,
   -3, -47, -21, 5, 18, -18, 127, 43,
   7, -50, -10, -25, -123, 3, -18, -35,
   38, 73, 99, -55, -32, -115, -15, -22,
   -46, 55, -100, 48, 67, -8, -14, -30,
   -33, 20, 1, 42, -51, 15, -44, 110,
   -28, -127, -15, -27, -23, -109, 20, 4,
   -9, -29, 24, -104, -23, 75, 127, 6,
   -14, 12, 52, -21, -128, -24, 40, -31,
   61, 58, 23, -35, -20, -8, -2, 69,
   50, -63, 53, 12, 122, -43, 13, -1,
   62, -63, 20, -17, -18, -20, -83, 66,
   125, 59, -29, -10, -3, 18, 30, -14,
   71, 3, 61, -14, -24, -88, 47, 123,
   65, -46, -128, -28, -128, -75, 36, -4,
   -15, 9, -3, -21, -45, 42, -127, -53,
   125, -16, 49, -24, 2, -107, -128, 18,
   71, -36, 44, 31, 4, -52, -4, -48,
   -61, 55, -51, -17, 93, -127, -62, -85,
   6, -28, -106, -29, -44, 50, 77, -127,
   32, -29, -115, 18, -16, 127, -46, -62,
   -19, 56, 83, 68, 28, -70, -20, -79,
   -32, -37, -71, -24, -23, 83, -1, 23,
   -39, 28, 40, 43, -7, 30, -39, 61,
   -74, -125, -6, -40, -42, -128, 16, -74,
   29, 39, -8, -67, 21, 98, 112, -20,
   20, 13, 28, -19, -94, 72, 42, 2,
   -9, 71, -51, 10, -3, -77, 84, -19,
   26, 18, -120, -15, 92, -20, -9, 83,
   61, -22, -24, 20, -5, -27, 24, 49,
   127, 127, 26, -76, -40, 0, 24, 23,
   -93, -34, 26, -2, 87, -7, 11, 42,
   -30, -128, -127, -18, -44, -113, 64, -8,
   13, 55, -84, -67, -29, 50, -58, -126,
   11, 54, 9, -7, -50, -64, -5, -126,
   39, -56, 82, 25, 39, 1, 29, -53,
   -108, 35, -8, 0, -27, -128, -3, -43,
   -15, -13, -22, -27, 85, 19, 54, -106,
   36, 17, 12, -3, -47, 123, 5, -128,
   36, 0, -10, 40, 43, 40, -43, 63,
   36, -7, 127, 123, -58, -20, 40, 51,
   52, 48, 14, -107, -64, 52, -97, 101,
   -86, -121, 63, -31, -55, -128, 16, -22,
   42, 16, 45, 10, 18, 49, 38, -56,
   60, 29, -27, -23, -57, 124, -1, -100,
   121, -21, -39, 28, -10, -64, 116, -106,
   63, 13, 11, 44, 11, 32, -31, 64,
   120, 65, -64, 66, -25, -7, 56, 86,
   70, 31, -125, 37, 65, 22, 26, 78,
   -8, 77, 25, -37, 15, -28, 88, -70,
   -1, -54, 13, 40, -30, -128, -40, 20,
   -101, -64, 98, -9, -104, -85, 12, -128,
   -15, 35, 45, -105, -126, -59, -126, -19,
   27, -82, -13, 4, -20, 44, -7, -44,
   4, 53, 74, -19, 36, -128, -124, 35,
   21, -5, 35, 26, -44, -112, -127, -5,
   -51, 59, 127, -15, -57, 43, -47, -128,
   -21, 51, -1, 34, -15, 21, 45, 127,
   -30, -68, -123, -4, -36, -3, -17, 78,
   15, -11, 11, -95, -4, -71, -31, 10,
   -4, -78, 17, -113, -32, -128, 48, 26,
   33, -9, 40, 68, 48, -118, 25, 127,
   -19, 124, -80, 18, -53, -24, 102, -128,
   -11, 40, 10, 21, 57, 23, 125, -80,
   26, 126, -69, 103, 124, -64, 40, 127,
   68, 59, 31, -13, 39, -78, -6, 127,
   -64, -14, 70, 15, -14, 84, -8, 26,
   13, 122, -31, -6, 9, 117, 18, 83,
   97, -19, -26, 126, -6, -86, 49, 38,
   -93, -32, -98, 21, -43, -10, 95, 91,
   33, 16, 102, 61, 49, 25, 127, 0,
   -15, 24, -110, 113, 8, 50, -97, 18,
   -98, 42, 2, 54, 40, -128, -57, -17,
   12, -38, -11, -39, 104, -16, 17, 119,
   -86, -30, -113, -38, -124, 5, -32, -128,
   21, -55, 68, 24, -51, -12, 46, -108,
   13, -44, -54, -115, -120, -23, -49, 69,
   -29, 21, 7, 82, 96, -44, -3, 127,
   -83, -122, 28, -59, 89, -128, 67, -2,
   -20, -128, 33, -79, 127, -83, 61, 127,
   -90, 122, -24, -73, -66, -35, -9, -128,
   84, -14, 35, -60, -21, -127, 64, -81,
   -21, 99, 70, -71, -27, 28, 9, 65,
   49, 33, 33, -10, 44, -77, -2, 98,
   111, -57, -32, 21, -68, -26, 40, 16,
   -41, -13, -31, 113, 3, -89, 79, -95,
   -6, -50, -111, -32, -36, 27, -40, -4,
   -128, 20, 41, 76, -80, 15, -29, 81,
   127, -40, 96, -49, -12, -14, -70, -68,
   35, -32, -66, 91, 20, -19, 10, 127,
   -32, 68, -25, 103, 27, -128, -16, -124,
   18, -13, -83, -29, 8, -7, -50, 75,
   -127, 74, -26, 4, 23, -24, -32, -68,
   39, -96, 67, -9, 9, -40, 42, 50,
   -13, -16, 21, 55, -51, 27, -23, -12,
   -47, -12, 33, 9, 37, 33, -55, 91,
   21, -59, -97, -1, -49, -128, -94, -18,
   -122, 36, -16, 7, 5, -3, 80, 65,
   -30, -11, -39, -31, 37, 9, 2, -27,
   -57, -4, -72, -125, 1, -68, -46, 55,
   72, 32, -32, -36, 30, 10, -4, -3,
   92, 78, 127, -91, 83, -13, 70, 117,
   -119, -52, 37, 98, 96, -23, -21, 6,
   -30, 77, 34, 127, 40, -27, 87, -25,
   28, -88, -41, 60, -28, 84, 127, -76,
   -20, 27, 4, 114, 0, 84, 125, 126,
   58, 25, 69, 2, 63, -90, 55, 27,
   -28, -21, -66, -17, 35, -47, 65, 127,
   -32, -72, 14, -91, 102, -62, 51, 54,
   24, -3, 16, -33, 27, -20, -70, -28,
   -99, 54, 123, -31, 103, -21, 54, 112,
   -56, -103, 26, -58, 114, 123, 29, -36,
   19, 27, -27, 22, 91, 55, -3, -1,
   74, -51, 1, 28, -28, -14, -83, -83,
   10, 92, -90, -22, -126, -119, -25, -47,
   58, 113, 36, 127, -34, 70, -24, 126,
   -49, 38, -77, -60, 117, -18, 4, 76,
   -128, 19, 40, -110, 105, -49, 28, 22,
   32, -15, 58, -27, 56, -14, 44, 17,
   -5, 35, 127, -55, 27, 42, 8, 107,
   -36, 12, -16, -2, -62, 5, 19, 123,
   15, -43, -39, 11, -6, -20, 53, -24,
   -2, -6, -33, 31, -3, -2, -53, 78,
   -31, -39, 54, 4, 4, 41, 19, -116,
   -77, 8, 21, 5, 5, 40, -8, -20,
   -10, 5, -39, 56, 70, 121, 80, -1,
   -3, 88, -5, -5, 57, -14, 45, 4,
   1, 106, 127, 97, 127, 29, 38, -19,
   37, 22, 14, -10, -121, -26, -42, -26,
   33, -105, -118, 59, 108, 80, -47, -122,
   -22, 61, -48, 50, 42, 48, 49, 89,
   -54, -44, 52, 84, -8, 110, 64, -102,
   -24, -33, -20, -48, 5, -38, -127, 73,
   -54, 104, 89, -26, 127, -56, -53, 67,
   14, -31, -31, -5, -25, -29, 26, -124,
   25, -127, -9, 65, 16, 127, 127, -11,
   57, -127, -119, 14, 62, 98, 106, 16,
   -96, -2, 103, 105, -18, 95, -45, -29,
   14, -35, 9, 52, 72, -9, 5, -5,
   -71, 46, 75, -39, 9, -19, 4, 34,
   8, -68, 68, 19, 24, 0, 38, -21,
   3, 38, -66, 30, 0, 64, -101, -63,
   -63, 11, 35, 26, -43, 45, 54, -39,
   -7, 15, -3, 68, 15, 123, -8, -57,
   -9, 15, 76, 12, -2, -70, 4, 55,
   -34, -66, 29, 11, -128, 38, -47, 27,
   -24, 127, 31, -3, -80, -108, -41, -28,
   -31, -31, -88, -46, 30, -2, 88, -18,
   127, 121, 88, 9, 109, -127, 11, 30,
   42, 0, 24, 56, -36, -51, -35, 28,
   -39, 67, 102, 78, -6, 43, 51, 34,
   18, -52, -12, -41, -128, 69, 14, -69,
   -39, 115, -42, -51, -16, -14, -21, 127,
   78, 7, -73, 33, -38, -73, -100, -113,
   -84, -57, 39, 102, 127, -128, -52, 21,
   -64, -26, 33, -17, -27, 116, -124, 24,
   4, 21, -11, -20, 59, 10, -56, 62,
   -29, -28, 30, 46, -32, 50, -36, -28,
   48, -5, 5, -40, -65, -17, -126, -74,
   -76, 25, -70, 1, -25, -93, -128, 127,
   1, 36, -60, -5, 8, -65, -19, -125,
   13, -35, 83, 19, -5, -38, -21, 31,
   -30, -41, 28, -87, -123, 0, -1, -67,
   -6, -15, -128, -21, 24, 120, -4, 112,
   -27, 127, 52, 4, -93, 33, -35, -26,
   86, 8, -19, 1, -107, 54, 114, 127,
   -63, 77, 41, 34, -46, -18, 127, -50,
   6, -72, 7, -41, 37, 56, -51, 55,
   -49, 0, 64, -26, 71, -7, 86, 46,
   9, -36, -127, 89, 27, 116, -24, 87,
   -43, 0, -27, -16, -6, -21, 51, 23,
   82, 48, -123, -21, -51, -128, -85, 127,
   124, 62, 14, 23, -65, 84, 127, 15,
   108, 23, -127, -11, 17, -36, 125, -51,
   2, 104, -68, 0, -1, -57, -53, 21,
   -41, -11, 53, 10, 7, 42, 6, -87,
   -71, 47, 9, 77, -111, -15, -1, -63,
   20, -37, -110, -8, -20, 16, -9, 6,
   42, -17, -85, 31, -87, -99, 48, 33,
   53, -14, -12, 65, 94, 47, 96, 25,
   -80, -110, 44, 16, -2, 10, 5, -33,
   28, 118, 38, -5, 125, -9, 26, 127,
   75, 57, -58, -85, -48, -1, -12, -35,
   -26, 58, -6, 81, 7, -127, -127, -51,
   -31, 6, -27, 8, 31, 127, 68, 3,
   37, -18, -27, -34, 20, -48, -109, -1,
   -19, -107, -17, 4, -18, 35, -127, 57,
   -2, 11, 41, 6, 84, -37, 53, 75,
   -35, -126, 20, -21, -10, 47, 64, 6,
   61, -23, -59, 126, -26, 22, 120, -25,
   126, -65, -85, -56, 21, -47, 59, -32,
   97, -10, -6, 12, 10, 24, 72, 108,
   7, -70, -2, -11, -41, -15, 79, 35,
   5, -79, -94, -34, 20, 107, 34, 120,
   24, 94, 34, 58, -112, 30, -59, 86,
   69, -44, -83, 55, -65, 12, 82, 44,
   -64, 45, 118, -87, -71, -68, 10, 15,
   -68, 15, -121, 63, -27, 3, -90, -9,
   4, -90, -59, 66, -95, 5, -64, 26,
   20, -100, 127, -44, -128, -125, -45, 4,
   69, 126, 20, 3, -125, 37, -5, -101,
   -62, -67, -52, 43, -55, 124, -48, 5,
   88, 29, 69, 12, -11, -53, 112, 64,
   39, -1, 44, 23, 74, 58, 16, -44,
   -20, 42, 94, -17, -67, -69, 86, -21,
   49, 31, 127, 126, -128, -127, 42, 91,
   38, -28, -77, 42, -82, 29, 35, -62,
   -1, -7, 2, -66, -23, 45, -30, 12,
   -102, 69, 127, -4, 54, 46, 80, -24,
   -3, -3, 121, 74, 2, -71, -95, -110,
   -39, 28, 54, -4, 56, 60, -1, -125,
   121, 62, 53, 53, 13, 73, -45, -16,
   -25, -76, 125, 0, -35, -51, 119, -36,
   -79, 36, -121, 2, -81, 22, -11, -26,
   52, 8, -101, -26, 32, 44, -1, 28,
   -70, -7, -27, 28, 73, -80, 67, -61,
   -37, 99, 70, -58, 101, -11, -30, 12,
   10, -25, 51, 23, 127, -35, -105, -113,
   -53, 127, -117, -17, -65, 42, 35, -36,
   -19, -62, -6, 11, -57, -106, 120, -111,
   -127, 21, -70, -111, -77, -91, -7, -13,
   45, 1, 22, 20, 36, 10, -24, -30,
   -56, -18, -37, 13, -23, -39, -46, 14,
   -45, -124, -72, 74, 110, -29, 20, 60,
   14, 125, 18, 35, 21, 22, -90, -24,
   -38, 55, 10, -35, -14, -20, -21, -128,
   125, 22, -78, -118, -22, -18, 8, -6,
   29, 23, -55, -72, -128, -35, 15, 4,
   36, 9, 30, -2, 5, 23, -26, 93,
   -14, 28, -76, 11, -10, 7, 51, 43,
   -28, 4, -62, -53, -57, -35, 32, 81,
   13, -15, 0, -16, 23, 31, -66, -24,
   -23, 40, -12, -9, 13, -1, -2, -1,
   9, -33, -65, -2, -4, 127, 2, -70,
   -123, -43, 67, 19, 91, -22, 81, -47,
   59, -28, 115, -63, 110, 11, 59, 37,
   48, -31, 41, -26, -77, -21, 24, -42,
   9, -11, -78, -27, 85, 0, -2, -32,
   -60, 32, 10, 40, -30, 55, 91, 19,
   -13, 20, -25, 127, 51, 122, -82, -33,
   -9, -98, -10, 38, 22, -12, -34, 28,
   -62, 71, -4, 111, 45, -70, -26, 127,
   39, 53, -20, 5, -19, 19, -32, -51,
   62, -91, 32, 0, -56, 6, 118, 22,
   27, -127, -69, -13, 86, 87, 115, 23,
   -17, 6, 54, 114, -3, 115, -108, -25,
   -10, -36, 89, 16, 118, 6, -56, 7,
   37, -30, 89, -39, -41, 44, 13, -5,
   -14, -23, 78, 1, -72, 1, 123, 66,
   -39, -41, 18, 0, 2, -1, -6, 14,
   1, -18, 16, 36, -102, -90, 17, 21,
   22, -18, -30, 25, -58, -62, -43, 3,
   -59, 38, 16, 47, 2, -55, -46, 102,
   1, 54, -47, 3, -127, 20, 1, -25,
   97, 89, 83, -88, -33, -40, -45, -16,
   64, -46, 7, -24, -98, 26, 57, -2,
   95, 37, 7, -5, 85, -81, -12, 11,
   -17, 20, 36, 15, -35, 41, -20, 28,
   -44, 77, 18, -13, -45, 22, 9, 81,
   -30, 25, 23, 47, -40, 48, -10, -116,
   74, 10, 42, 13, -48, 12, 85, 16,
   21, 20, -14, -36, -49, 9, -21, -18,
   -28, -11, 86, -28, 127, -63, -51, -35,
   44, -21, 47, -33, 9, 12, -61, -35,
   -20, -30, -38, 16, -27, -40, -20, 67,
   37, 16, 65, 16, -5, -8, -16, -48,
   -1, -54, 22, 70, -105, -7, -76, -22,
   -26, 1, 33, 5, 21, -2, -55, 111,
   -9, 8, -47, -15, -4, 85, 30, 35,
   23, 15, 44, 40, 21, -7, 24, -6,
   92, -81, -14, -2, -127, 0, -106, -9,
   63, -26, -47, 18, -18, 20, -4, 67,
   9, 100, -30, 25, 26, 20, -127, 19,
   -25, 31, 24, 3, 12, 71, 59, -39,
   -114, -46, -75, -14, -78, -30, 116, -32,
   -75, -63, 42, -122, -81, -51, 4, -7,
   44, 29, -50, 8, 2, 5, 66, 38,
   -33, 23, -85, -54, 1, 23, -39, 48,
   11, -49, 34, 70, -12, -19, -38, 20,
   28, -4, 25, -33, 2, -33, -75, 54,
   32, 73, -58, 13, -104, 39, 127, 43,
   52, -44, -50, 20, 1, -1, 56, -11,
   19, 13, 94, 10, 0, 31, 56, -56,
   -24, 10, 18, 28, 35, 28, -24, -127,
   28, 14, 30, 20, -42, 90, 32, 23,
   44, -102, -66, 74, -41, -62, -61, -23,
   -14, 22, 71, -51, -86, -78, 44, -5,
   -17, -1, -92, -10, 20, -72, 11, 30,
   45, -43, -33, -62, 73, -8, 28, 10,
   6, -8, 47, -55, 122, -7, 5, -83,
   14, 43, -11, -2, -6, -1, -11, 40,
   -3, 3, -10, 98, 5, -124, -57, -3,
   84, 85, 15, -54, -13, 90, 42, 11,
   64, -56, -56, -102, -97, -23, 35, 25,
   83, -15, -24, -14, -55, 13, -42, 32,
   -92, 48, -17, 52, 20, 23, 21, 42,
   -47, -54, -15, -27, 16, 18, -15, -28,
   46, -5, -30, 46, -6, -59, 59, -32,
   70, -18, 54, 13, 8, -44, -4, -37,
   71, 8, -66, -2, 90, -88, 0, 38,
   5, 23, -21, -44, -60, 33, 26, 48,
   -38, 14, -108, 54, -1, 43, -8, 120,
   -47, 43, -91, -8, -84, -67, 33, 57,
   -43, -1, 48, -6, 41, -6, 97, 18,
   27, 58, -9, 96, -60, 16, -1, -3,
   16, -25, -24, 13, -57, -26, -1, -19,
   20, 44, 39, 40, 38, 25, -25, -25,
   5, 54, 58, -10, -98, -82, -23, -39,
   -19, -49, -6, 50, -63, 20, 0, -32,
   5, -20, 69, 45, -86, 22, -52, -35,
   -82, 23, -32, -21, 4, -1, 82, 6,
   35, -15, 44, 126, 3, -41, -30, 42,
   -16, 24, -26, 81, -43, -37, -3, -9,
   -60, -41, 26, 70, -42, 49, 0, 69,
   -1, 58, -44, -61, -18, 18, -71, -11,
   -42, -6, 94, 72, -37, 46, 15, 27,
   -70, -13, -22, 7, 7, 15, 118, -18,
   -38, -42, 63, 87, 94, -56, -49, -15,
   7, -27, 37, -8, 21, 95, -54, -22,
   3, -15, 28, -23, 16, 21, -94, -90,
   38, -87, 103, -7, -21, -59, -5, -44,
   -14, -32, -78, -74, -61, 15, 40, -83,
   -7, 33, -10, -29, 40, -15, -5, 38,
   -64, -26, -18, -9, -55, 8, 0, -70,
   -17, -13, -17, -27, -19, -49, -11, 46,
   46, -47, 45, -31, 97, -26, -60, 79,
   50, 74, -75, 68, -5, -13, 29, -19,
   -15, -38, 121, -31, -127, -22, 61, 56,
   -31, 10, 45, -21, -26, -42, 20, -3,
   62, -45, 1, -49, 22, 11, -3, -13,
   -48, -11, -4, -32, -2, 33, 42, -13,
   -64, 9, -15, 18, 38, -17, 20, 11,
   35, 39, -13, 19, -19, 2, 2, -20,
   60, 1, 1, -125, -25, -31, 2, -43,
   39, 34, -35, 8, -50, -13, -49, -4,
   49, 37, -3, -47, 127, -36, 10, -9,
   -26, -96, 53, 17, -11, -21, -47, -103,
   3, -10, 49, 32, -21, 3, 5, 29,
   57, -32, -2, 19, -54, -35, 68, -43,
   -92, 40, -128, -1, -105, 31, -2, -19,
   76, 85, -119, -41, -50, 42, -20, 103,
   -18, -38, 69, 16, -44, -56, 19, -10,
   47, -68, -30, -4, 55, -4, 70, -128,
   -2, 0, 9, -11, -28, 29, -15, -127,
   -46, -8, -76, 66, 5, 19, 1, 66,
   -23, 43, -128, 18, -5, 126, 79, -122,
   12, -30, -33, -39, -95, -85, -24, -14,
   -53, 0, 51, -102, -19, 42, 25, -127,
   25, 99, -74, 24, 29, 8, -23, -41,
   -2, 25, 37, 9, 18, -59, -36, -127,
   -17, -4, -52, -33, 52, -1, -51, -11,
   25, 2, 127, 8, 81, -28, -63, 5,
   -55, 122, 3, -47, -80, -17, -24, 96,
   9, 4, 44, -32, -50, -30, -25, -73,
   -46, -37, -36, -1, 29, 10, -19, -73,
   7, 7, -26, 16, -10, 76, 0, -22,
   -1, -9, 67, -1, 18, 42, 42, -26,
   -62, -42, -128, 22, -91, 7, -38, -31,
   -16, 72, -24, -50, -39, 20, 13, 16,
   -15, 19, 5, 13, -56, -25, -52, 12,
   50, 85, 28, -11, -15, 11, 32, -44,
   -5, -14, 8, -34, 16, -2, 127, -3,
   27, -12, 60, 40, 13, 12, 41, 51,
   -45, -20, -127, 26, 1, 38, -4, 48,
   -28, 58, -67, 45, -12, 12, 16, -16,
   -80, -15, 20, -78, -30, -37, 22, -127,
   53, 60, -58, 8, -19, -7, -17, 3,
   18, 26, -25, 39, 8, -32, -54, 23,
   -17, -29, -74, -20, -9, 24, -5, 30,
   58, 16, 127, -4, 67, -22, 23, 71,
   -26, 57, 45, -11, -12, 48, 33, 67,
   -17, 26, 20, -37, -45, -15, 52, -21,
   72, 51, -7, 36, 56, -28, 71, 5,
   26, 31, 11, 82, 4, 34, -1, -81,
   7, -86, 11, 77, 38, 67, 118, -48,
   73, 37, 124, 96, -6, -86, 5, 82,
   -35, 29, 70, -96, -18, -69, 3, -78,
   -19, 93, -61, 63, -48, -24, -80, 3,
   1, 127, -61, 30, 33, 6, -58, 15,
   15, -83, -17, -10, -43, 47, 127, 55,
   50, -54, 12, -59, -6, -2, 41, -2,
   26, -51, 127, 2, -3, -126, -124, 19,
   -10, 16, 71, -19, -48, 64, 42, -43,
   -107, -11, 47, -5, -51, -26, -38, 118,
   17, -59, -43, -14, -51, -7, 13, 46,
   -39, -66, -4, -113, 5, 6, 5, 62,
   16, -21, 78, 60, -13, -17, -88, 32,
   28, -7, -103, -8, 57, 55, 61, 64,
   -2, -41, -7, -39, 18, -13, 45, 28,
   -59, 30, 9, 29, 10, 24, 61, 33,
   26, -62, -51, -47, 59, -79, 35, 37,
   46, 35, 10, 4, 37, 8, 42, 22,
   -19, -80, -66, 9, -89, 46, 5, -49,
   29, -1, 102, 43, 35, 28, 13, -13,
   94, -41, 20, -23, 37, -16, -74, -28,
   -20, 44, 84, -37, 79, -53, 15, 10,
   -61, 28, -106, 10, 68, -8, -26, -40,
   15, -28, -43, -25, -34, -17, 20, -127,
   -33, 17, -53, 48, -4, -6, 20, 6,
   -8, -13, 68, -8, -2, -47, 30, -81,
   36, 18, 127, -62, -52, -88, 22, 28,
   20, -31, 24, 21, 13, 66, 28, 82,
   -67, -10, -74, -4, 3, -14, -2, -2,
   -58, 16, 31, -12, 36, -17, 42, -111,
   11, 11, -2, -12, 45, 26, -50, 53,
   -45, 31, -32, -43, -27, -2, 14, 64,
   73, -37, -8, -35, -8, 11, -48, -48,
   -49, 22, -25, -56, 7, 102, -1, 19,
   -55, -118, -41, 57, 23, 27, 4, 70,
   16, -37, 17, -67, -36, 35, 109, -11,
   4, -31, 126, -55, -2, 3, 122, 10,
   0, -71, 18, -62, 19, 25, -28, -120,
   63, -98, 10, 2, 10, 59, 5, 31,
   -27, 42, 19, -51, 15, -28, 6, 9,
   19, -99, -52, -50, 55, 9, 23, -38,
   6, -24, -4, -68, 40, -26, -49, 56,
   -94, 63, 11, 84, 42, 8, 29, -33,
   -29, -12, -17, 63, -4, 126, -17, 52,
   29, -22, 37, 127, 41, 19, -4, 11,
   23, 4, -25, -41, 54, 2, -31, -88,
   107, 34, -33, 50, 32, -21, 13, 46,
   -40, 62, -1, 73, 9, 19, 3, 28,
   -67, 17, -18, -36, 49, -21, -25, 5,
   -50, 41, -10, 28, -37, -5, 58, 26,
   49, -12, -10, 35, -34, 15, -14, -33,
   -21, -11, -5, 0, 25, 109, -24, -42,
   126, -24, -75, -47, -19, 8, 29, -13,
   -10, 84, -107, -1, 41, -64, 80, -73,
   45, -128, 118, 29, -30, -5, 88, -7,
   49, -46, 49, 14, 32, -48, 66, -61,
   -36, 23, 28, -73, -62, -39, -13, 25,
   15, 127, 23, -26, 1, -72, 7, 26,
   -49, 110, -31, -34, -5, -22, 34, -26,
   15, 8, 7, -66, -30, 26, -120, 30,
   73, -10, -80, 22, 2, -10, 35, 4,
   21, -12, 116, 7, -66, 66, 27, 60,
   55, -24, -106, 127, 67, 24, 0, -7,
   56, 38, -13, 5, 11, -61, 10, -31,
   -21, -53, -14, -31, 14, -19, 44, 63,
   -39, -27, -48, 52, -30, 61, -35, 8,
   -8, -10, -6, -23, -25, 66, -121, -41,
   45, 12, -127, -23, -17, 51, 21, 75,
   20, -87, -11, 16, 50, 6, 4, -8,
   -37, 66, -5, 7, -7, 18, -8, -53,
   -7, -21, -18, 3, 52, 1, 5, -1,
   -25, 10, -27, 8, -17, 9, -7, 20,
   15, 12, 4, 11, -28, 8, 38, -21,
   1, -3, 90, -2, -11, -4, -2, -15,
   -14, -17, 27, 49, -21, 1, 3, -22,
   -2, 12, -8, -5, 17, 3, 21, 26,
   -28, 62, 26, 14, -70, -4, -30, 9,
   38, -8, -1, 52, 7, 11, -6, 8,
   -42, 6, 6, -58, 15, 2, 58, -1,
   50, -1, 60, -23, 1, -15, -18, 67,
   -3, 6, 22, 31, 9, 10, 5, -1,
   -16, -66, -25, 8, 44, 3, -14, 58,
   13, -9, 21, -4, -29, -2, 2, -1,
   5, -4, 9, -26, -12, -6, 2, 17,
   24, -1, 14, 17, -10, -1, -10, 6,
   17, -19, -34, 4, -3, 7, -9, 6,
   -2, -11, -2, 7, -9, -7, 3, -8,
   1, -2, -14, 0, -1, 56, 10, 9,
   37, 4, -3, -8, 21, 70, 24, -60,
   -4, 51, -3, -48, 23, 17, 52, 3,
   13, -106, 98, 59, -22, -56, -71, 38,
   29, -17, -2, 22, 39, 19, -24, 50,
   -37, 8, 39, 89, -37, -53, -11, 26,
   23, -52, 30, 2, 39, -78, 23, 3,
   42, -16, -15, -67, -6, -39, -18, 61,
   -17, 2, 31, 23, 30, 1, -59, -3,
   34, 12, 7, 33, -22, -30, 53, 11,
   -58, -101, 8, -102, 6, -31, 13, 13,
   27, -10, -19, -67, -8, -31, 54, -30,
   -49, -1, -86, -3, -27, -38, 54, 1,
   -33, 22, -12, -1, 29, 33, 28, -25,
   -3, 7, -8, -43, 15, 6, 61, 24,
   4, -21, -6, -29, -6, -6, -53, 24,
   -1, -67, 12, 44, -1, -2, 29, -33,
   -22, 15, -39, -2, 54, -6, 25, 13,
   23, -2, -6, 1, -43, -59, -21, -33
};

static const rnn_weight noise_gru_recurrent_weights[6912] = {
   0, -50, 88, 72, 23, 1, 12, 73,
   20, 40, 46, 82, 52, 49, 14, 30,
   80, 56, 5, 95, -8, -127, 44, 11,
   66, -58, -32, 23, 106, -86, -19, -45,
   21, -28, -71, 78, -108, -36, 57, -77,
   5, 57, 2, 6, 85, 54, 2, 32,
   -3, 2, -119, 27, 9, -17, 20, 21,
   53, 112, 11, -14, 5, -55, 60, 29,
   43, 17, -6, -15, -13, 52, 60, -47,
   -24, 36, -8, -35, 31, 2, 36, -9,
   -4, -7, -28, 19, -54, 23, -14, -1,
   6, -24, -4, -9, 23, -8, 31, 20,
   0, -14, -19, 51, -1, -48, -25, 8,
   -18, -42, 20, -18, 74, 10, 41, 79,
   10, -48, 33, 28, -3, 47, -19, -65,
   20, 42, -18, -47, 26, 38, 33, 15,
   -19, 97, 28, -15, -14, 2, 33, 122,
   -16, -14, 0, -60, 21, 8, 15, -57,
   -6, -61, -21, 16, -82, -14, 31, 5,
   -53, 94, 23, -4, -3, -47, -18, -31,
   -27, -2, 11, 43, -8, 33, 27, 26,
   -19, 63, 75, -24, -25, -17, -38, 77,
   24, -10, -4, -34, 34, -3, 3, -36,
   5, 15, -7, -9, -12, -21, 6, -2,
   92, 37, -18, -27, 2, -7, 70, -27,
   0, 35, 7, 36, 2, -17, 22, -123,
   62, 60, 32, 22, -15, 31, 19, 35,
   -26, -7, -27, 2, 1, 36, 6, 63,
   9, 9, -57, 33, -44, 11, -15, -10,
   13, -19, 30, -26, -24, -38, 17, -25,
   50, 21, -51, 12, -1, -43, -54, 33,
   -21, 42, 10, -33, 15, 88, -16, -40,
   28, -6, 12, -74, -54, 35, 10, -24,
   -31, 44, -19, -3, -4, -19, 55, 30,
   10, -22, 9, 6, 13, 50, 6, 21,
   68, 16, -13, 23, -5, -27, 44, -38,
   79, -16, 86, 76, -15, -78, 35, -16,
   83, 82, 35, -16, 8, 12, -27, 21,
   89, -14, -21, 101, 29, 27, -31, -46,
   33, 9, 6, 70, 46, -37, -67, 12,
   -53, 27, 127, 86, 89, 49, 39, -14,
   33, 80, 8, 7, 16, 7, -52, 28,
   41, -5, 7, 4, -1, 22, -4, 35,
   24, -20, 31, 16, -39, 12, 6, -15,
   1, 28, -3, -1, -39, -82, -52, -5,
   14, -13, 34, 48, -2, -39, -22, -7,
   -2, 30, -59, -77, -3, -62, -24, -23,
   -1, 55, -43, -25, -3, 3, 9, 14,
   6, 21, 9, -32, 28, 82, 4, 15,
   2, -5, 31, -54, 24, 49, 21, -39,
   68, 37, -106, 10, -22, 55, 34, 73,
   1, -1, 17, 12, -27, 5, -53, -93,
   -3, -34, 47, -20, 127, 57, 24, 11,
   32, -72, 19, 8, -20, 22, -16, 24,
   64, 49, -17, -16, -25, -33, 22, -15,
   16, 28, -42, 27, -46, -37, 5, -18,
   30, -17, -41, -4, -45, 41, -32, -6,
   -4, -15, -44, 12, -23, 2, -86, 43,
   24, -5, 6, 3, -10, 43, -101, -35,
   21, 2, -9, -36, -1, -23, -11, -55,
   -2, 65, 18, -9, -11, -18, 6, -17,
   6, 62, 12, 4, -106, 31, 4, -33,
   12, 36, 48, 19, 37, -2, -43, 25,
   -25, -3, -6, 7, -4, 0, 15, -11,
   42, 20, -90, -42, -5, -128, 35, -18,
   16, 90, -2, 45, -17, 28, -29, -48,
   -1, 34, 28, -51, 3, 38, -18, -11,
   -2, 38, 36, -33, -45, 10, 39, 16,
   9, 28, 4, 3, 41, 73, -19, 56,
   -33, -1, -38, 42, 30, 7, -96, -8,
   -5, 30, 0, -20, 33, 40, 3, 56,
   4, 30, -8, -13, -29, -13, -3, 123,
   85, -22, -3, -13, -26, -15, 29, -22,
   19, -31, 6, -3, -8, 14, -13, 40,
   -24, 0, -31, -39, 19, -3, 13, 9,
   21, 64, 39, -45, -43, 7, -26, -36,
   -3, 42, 41, -23, -50, 3, -20, -57,
   -19, 3, -19, -29, 11, 24, 23, -4,
   -39, -13, -9, -19, 36, -7, -48, -2,
   -30, -30, -53, -7, -53, 0, -6, -22,
   -13, 5, -12, -11, 12, 2, -5, 2,
   37, 20, -3, 39, -38, 28, 23, -2,
   -16, 11, 4, -19, 19, 30, -2, 15,
   20, 23, -5, 20, 15, -2, 31, 12,
   -11, 29, 2, -22, -16, 7, -3, -29,
   -11, -39, -13, -36, -1, 9, -15, 55,
   -28, 3, 28, -49, -1, -3, 22, -12,
   -30, 1, -35, 20, 5, -78, -54, 127,
   4, -18, 31, -14, 15, -16, 3, -17,
   34, 1, -11, 45, 1, -69, -7, 51,
   62, -10, 11, 98, -17, 17, 2, 24,
   94, 46, 4, 50, 3, -15, -62, -17,
   42, 53, 26, 34, 8, -19, 45, 5,
   102, -23, 29, 59, 60, -16, 9, -9,
   -14, -15, 35, 63, 46, -21, -12, 7,
   24, 86, -31, 8, 31, 48, 57, -11,
   87, -18, 39, 42, -5, 21, -42, 15,
   -20, -51, 20, -26, 12, -10, 10, 11,
   -22, -19, -47, -44, 6, -9, -8, 43,
   -19, -3, 13, 28, -5, 31, -36, 28,
   -7, -18, -52, 5, 11, 5, -32, -5,
   -13, 20, -19, 22, 34, -17, 15, 18,
   48, 64, 26, 29, 14, -62, -10, 14,
   20, -33, 60, -3, 2, 54, -1, 27,
   25, -40, -32, -34, -21, 60, 20, -38,
   -16, -13, -50, 4, -38, -59, -76, 33,
   -11, -2, -46, 22, 77, 48, 64, 34,
   15, -25, -31, -8, 1, 15, -7, 13,
   -9, 14, 4, 14, -21, -29, -38, -21,
   24, 49, -49, 30, -47, -68, 36, 19,
   7, -52, -14, -21, -14, -42, 21, -20,
   11, 75, -13, 34, 18, -80, 12, 40,
   11, -10, 41, 45, 26, -29, -16, -56,
   -22, 30, 22, -17, 38, 5, -15, -46,
   0, 25, -1, -22, -1, -4, 23, -51,
   -9, -5, -10, 19, -70, -12, 0, 8,
   28, 17, 24, 24, 18, 33, -15, 34,
   21, 27, 24, 26, 1, 20, 17, -8,
   -7, 32, -7, -13, 24, -48, -28, -17,
   19, 58, -5, 18, 6, 38, 1, -3,
   28, 1, 31, 13, -22, 62, -38, -15,
   -24, 13, 46, -43, -23, -26, 17, 30,
   -15, 48, 46, 56, 1, 16, -7, 21,
   19, 44, -7, 32, 24, -17, -37, -12,
   45, 18, -5, -18, 28, -4, 29, 31,
   -5, 15, -32, 31, 23, -15, 3, 59,
   38, 27, 1, 37, -7, -21, -46, 55,
   64, -61, 5, 62, -23, 9, 11, -27,
   -5, -20, -38, 50, 35, 7, 73, -56,
   9, 1, -4, 0, 58, -19, 7, -13,
   60, -5, 69, 43, 32, 35, -6, -6,
   62, 18, 0, -32, 63, 100, -1, -39,
   -20, 0, 16, 9, 54, -19, 0, 3,
   -31, 4, -21, -34, -45, -2, -32, -87,
   38, -12, -49, -2, 27, -32, -37, 11,
   35, 12, -27, -4, 16, 3, -24, 20,
   -26, 60, 7, 29, 36, -11, -82, -5,
   -7, 46, 23, 13, 33, -23, 18, 115,
   30, -4, -39, -17, 42, 31, 40, -23,
   -27, 19, 21, -31, -20, 15, 1, -20,
   18, -30, -29, -10, 34, 60, 9, -5,
   2, 35, -51, 0, 2, -78, -76, 16,
   38, -2, 28, 35, 72, 56, -1, 80,
   -37, 10, -14, -1, 29, -3, 70, -2,
   16, 1, 9, 30, -46, 28, -25, 42,
   20, 42, 22, 19, 30, -7, 50, 0,
   -13, -66, 108, 73, -25, -57, 0, -4,
   -46, -47, -8, -4, 51, -2, -2, 68,
   2, -56, -14, -3, 42, -16, 4, 14,
   34, 48, -14, -32, 12, 46, 11, 2,
   48, 30, 16, 37, 21, 7, -34, -28,
   -10, -3, -17, -43, 29, -16, -38, 1,
   45, 17, 7, 71, 23, 29, -10, 48,
   -8, 19, 49, -6, 42, 10, -27, -6,
   42, 80, 6, -7, -49, -123, 14, -80,
   33, 73, -8, 22, 27, -3, 31, 61,
   30, -12, 3, -57, -29, 62, 6, -4,
   -75, -1, 44, -28, 21, 15, 21, 14,
   2, -6, -25, -19, -20, 13, -21, 32,
   19, -7, -49, 64, 15, -36, 0, -74,
   -39, 57, 23, -14, 8, 20, 87, 13,
   -28, 4, -6, 27, 87, 8, -9, 49,
   18, -58, 83, 95, 19, -14, -14, 39,
   120, 83, 62, 31, 17, 38, -51, -2,
   127, 22, 59, 127, -19, -15, 113, -19,
   66, -60, 22, 125, 112, 34, 28, -14,
   -67, -17, 42, 50, 8, -19, 83, -16,
   37, 127, -3, -5, 127, 44, -23, 27,
   -31, -31, 18, -26, 100, 29, -52, 56,
   79, -4, 60, 17, 21, -44, -54, 12,
   17, 11, 15, -45, -83, -26, -9, -54,
   -6, -51, -62, -4, -28, -20, -5, 60,
   44, 21, -6, -44, -19, 16, -57, 26,
   13, -34, 29, -34, -10, 19, 6, 0,
   22, 28, -43, 42, 29, 58, -11, 39,
   -10, -14, 13, -34, 7, -36, -7, 60,
   -5, 19, -42, -27, 25, 78, 15, -4,
   28, 6, -21, 30, 29, -24, -57, -28,
   -39, -10, 42, 47, 34, 42, 87, 32,
   26, -1, 44, 4, -11, 51, 27, -73,
   40, -71, 17, 68, -73, -3, 13, 40,
   68, 91, -59, 98, 25, 7, 13, -1,
   86, -14, 33, 119, 3, 17, 25, -25,
   31, -8, -68, 26, 3, -9, -3, 92,
   -14, 25, 15, 54, 43, -36, 4, -32,
   -6, 87, -68, 25, 70, 25, 7, 4,
   22, -44, -16, 19, 36, 5, 37, -14,
   47, 45, 34, 26, 24, -8, 17, 18,
   -57, 15, -25, 33, -58, -18, -8, -13,
   82, -36, -20, -29, 20, -44, -7, -17,
   13, 7, 13, -21, -61, -7, 10, 0,
   -25, 18, 7, -18, 1, 49, 22, 3,
   7, 0, -52, 0, 41, -26, -2, 27,
   -2, -4, 27, -16, -17, 50, 18, 39,
   39, -28, 3, 24, -26, 33, -17, -9,
   -14, -22, -1, -9, 6, -40, 32, 7,
   -34, 15, 42, 1, 23, 28, 51, 17,
   -2, -23, 50, 2, -20, -23, 4, -15,
   -61, -48, -76, -9, -8, 10, 11, 22,
   -57, -39, -4, -61, 40, -16, 21, 32,
   -69, -45, 43, -85, -30, -62, -38, 15,
   -58, 12, 51, -27, -49, 20, 24, 44,
   50, -38, -18, -26, 85, 10, 74, 0,
   7, -72, 16, -24, -110, 54, 37, 12,
   34, 21, 4, -2, 18, -22, 28, -1,
   -19, -11, -79, 65, 25, 37, -19, -2,
   83, 37, -3, 100, 45, 61, 27, -11,
   7, -1, -26, 5, 18, -2, -31, 18,
   -9, -22, -7, 8, -100, -12, -39, -49,
   -14, -13, 1, 31, -9, 32, 13, 40,
   24, 22, 50, -24, -20, -2, -46, -20,
   -17, 56, 10, -58, 35, -38, -17, -64,
   8, -27, 2, -5, 10, 40, -2, 16,
   -20, 39, -21, 52, 32, 30, -8, 38,
   -4, 44, 27, 39, 9, 3, -2, 4,
   -8, 50, -16, 38, 28, -21, 11, -9,
   1, -20, -46, 77, 11, 17, -2, 55,
   45, 6, -10, 11, -18, -16, -5, -29,
   6, -36, 13, -21, 5, -13, 50, -9,
   -26, 27, -17, -8, -8, 36, -24, -11,
   -73, 13, -2, 10, 16, -97, -2, -53,
   7, 78, 3, 8, -18, 37, -59, 44,
   47, -1, 7, -19, 38, 29, -23, 49,
   20, 10, 9, 38, 4, -2, -22, 0,
   -11, -1, -105, -2, -16, -1, -8, -10,
   86, -23, -9, -34, 25, -9, 12, -36,
   20, 0, -5, 1, -52, 27, 4, -5,
   29, 10, 3, 18, 12, 21, 25, 13,
   37, 13, -3, 59, 68, 24, 15, 70,
   -26, 47, -21, -34, 72, 21, 4, 74,
   22, -4, -30, 0, 21, -17, 28, -28,
   22, -42, 0, 24, -13, -72, -118, 17,
   -27, 6, 29, 40, 1, -9, -8, -16,
   48, -25, -28, -4, -5, 11, -34, 17,
   110, -52, 119, 47, -6, -31, 19, -2,
   32, 91, 40, 43, 5, -52, -53, -36,
   53, -53, 52, 42, -1, 12, -10, -42,
   -89, 82, -80, 13, 52, 40, -127, 127,
   12, -36, -10, 125, -26, -24, -13, -21,
   45, 17, 67, 34, 25, 6, 16, 52,
   49, -36, 20, 30, 9, -21, 28, -4,
   88, -22, -23, -4, -26, -12, -2, 58,
   34, -5, -17, 21, 11, -24, -11, 20,
   -105, -1, 5, 16, 49, 13, 72, -128,
   40, 13, -11, 9, -118, -4, -16, -11,
   21, 34, 25, 77, -10, -2, -10, 42,
   65, 85, 66, 29, -20, 7, 13, 19,
   0, 95, 22, -77, 8, 48, 30, -126,
   81, 19, 3, -32, -58, -5, 66, 25,
   -127, 4, -36, -12, 26, -61, -82, -45,
   -5, 45, 2, -45, 43, 0, 23, 59,
   43, 5, -17, -21, -20, -9, 6, 52,
   -105, -25, 13, -13, 66, -43, -46, -32,
   15, -7, -47, -15, -52, 34, -44, 7,
   -41, -43, -126, -6, -43, 7, 19, -26,
   -22, -31, 90, -28, -51, -54, 60, -81,
   34, -19, 12, -3, 53, -44, 11, -37,
   47, -5, -26, -25, -10, 11, -13, -10,
   28, 50, -13, -32, -13, -34, -24, 9,
   17, -50, 29, -37, -5, -3, -34, 7,
   16, 10, -2, -31, 24, 5, 9, -21,
   67, 6, -10, -10, 10, 5, 6, -16,
   4, 30, 37, 44, -45, 21, -10, 28,
   11, 3, 37, -34, -5, 39, -5, 6,
   18, -69, 3, 7, -2, 102, -7, -15,
   44, 36, 0, 2, -36, -9, -5, 1,
   17, 39, -11, -9, -13, 47, -1, 1,
   38, 20, -14, 23, -2, 28, -23, 8,
   17, 13, -2, 1, -1, -6, -28, -2,
   16, 6, -6, -26, -9, -20, 23, 7,
   62, -25, 46, 44, -1, 51, 7, -10,
   12, 118, 51, 90, 33, 0, -74, -34,
   83, 37, 67, 88, 1, 28, 49, -34,
   16, -33, -43, 69, 36, -41, -13, 100,
   22, -33, 13, -8, 48, -3, -31, 14,
   17, 113, -24, 47, 48, 39, 48, 20,
   41, -26, -43, -2, 12, 28, -39, 21,
   22, 33, 5, -7, -47, -2, 18, 32,
   16, -6, -3, 11, 17, -5, -18, 15,
   -29, 6, 39, -11, 9, -11, 26, -51,
   57, -2, -30, -15, -69, 0, -74, -17,
   33, 45, -34, 18, -12, -18, 25, -2,
   28, 30, -59, -12, 9, 25, 4, -20,
   -25, 28, 6, 6, 5, 14, -12, 36,
   26, -28, -1, 15, -30, 12, 14, -6,
   3, 8, -17, 43, 43, -25, -81, -10,
   -26, 11, -18, 8, -16, 14, 31, 32,
   25, 26, 32, 1, 8, 5, 15, -1,
   51, -14, -20, -31, 51, 4, 38, -46,
   5, -24, 29, -3, 22, 30, -51, -6,
   63, 36, -19, -49, 36, 33, 37, 30,
   92, 13, 28, 73, 47, 46, -31, -63,
   -16, 1, 2, -18, 27, 21, -21, -7,
   -24, 16, -11, 34, 23, 13, -10, 14,
   8, -46, 7, 19, 58, 43, 12, 2,
   58, -49, 47, -27, -9, -14, -29, -12,
   -21, 25, -41, 7, -30, -60, -2, -13,
   46, -59, -25, -33, -44, 1, -19, 44,
   -2, 65, -38, 11, 36, 69, -24, 127,
   -10, -9, -3, 21, -4, -21, 24, 4,
   0, -10, 0, -42, -5, -16, 33, -2,
   75, 11, 24, 63, -4, 24, -11, 20,
   26, -4, -25, 51, -14, 41, 89, 5,
   40, -2, 5, 4, -12, 0, -15, 30,
   18, -127, 28, 84, 112, 53, 39, 30,
   20, -22, 40, 52, 99, 22, -1, -26,
   54, -17, 14, -6, -18, 27, -68, 4,
   14, 30, 14, 19, 1, -14, 56, 18,
   26, -39, 10, 68, -8, -8, 8, -6,
   -30, 24, -90, -18, -13, -1, 40, 44,
   -25, 14, -57, 34, 14, -21, 50, -17,
   4, -5, -48, -6, 32, 5, 25, 12,
   66, 18, 27, -24, 27, -4, -18, 22,
   -9, 46, -12, 11, 10, 11, -15, -33,
   1, -1, -24, 24, -17, -35, -32, -20,
   -1, -11, 43, -46, 24, 22, 38, -75,
   62, 52, -15, -67, -40, -11, 17, -8,
   49, 16, 19, -6, -8, -13, 29, -15,
   20, 30, 2, -45, 51, -18, -36, 14,
   -13, 59, -11, -8, -12, 3, 29, -25,
   22, -43, -33, -3, -45, -24, 19, 26,
   21, -7, -16, 22, 21, -25, -76, -25,
   -1, 48, 35, 24, 28, 46, 33, 28,
   15, -39, 10, -25, 22, -18, 5, -14,
   -24, 60, 60, -32, 10, 2, -20, 15,
   17, -38, -81, 11, -15, 26, 6, -57,
   -9, 34, -38, -78, 13, -2, -29, -2,
   41, 78, -20, -25, 12, -31, 36, -43,
   4, 31, -8, -10, -50, 62, -31, -8,
   21, -10, -3, 24, 20, 29, 40, 5,
   31, 3, -6, -16, -34, -14, -39, -65,
   -10, -63, -33, 60, -16, -9, -41, -7,
   -6, -5, 37, 26, 15, -1, 3, -17,
   55, 4, 6, 13, 14, -3, -35, 49,
   -66, -38, 21, 108, 48, 3, -7, 0,
   -11, 20, -30, -5, -4, 37, -14, -36,
   12, -34, 50, 12, 10, -6, -1, -70,
   -18, -7, -9, -2, 87, -25, 38, 44,
   1, 89, -7, 25, 57, 38, -24, 18,
   53, 15, -49, -11, 1, 58, -8, 70,
   30, 11, 29, 10, 20, -46, 38, 53,
   50, 45, 47, -11, 14, 3, -25, -1,
   6, -14, 54, 64, -10, -1, -37, 26,
   35, 31, -108, 41, -34, 56, -22, 9,
   -37, -36, -34, 32, -62, -90, 40, -6,
   -43, -74, -42, 1, 19, -21, -44, 15,
   -28, -51, 12, 51, -4, 11, -28, -14,
   29, 50, -13, -1, -35, -4, -9, -23,
   4, 5, -18, 6, -74, 2, -38, 20,
   7, 65, -42, 30, -18, 68, 10, -40,
   10, 33, 35, -14, 9, 70, -2, 41,
   5, 19, -17, 43, 13, 10, 4, -6,
   -12, 54, -40, 3, 17, -105, 33, -99,
   8, 54, -21, 6, -37, 12, -17, 0,
   40, -3, -17, 10, -2, 54, 20, -2,
   -35, -6, -12, -14, 38, 5, 31, 35,
   0, 81, -17, -14, 53, 66, 7, 35,
   26, 76, -42, 17, 15, -44, -16, 11,
   22, 39, 55, -21, 35, 4, 54, 33,
   -3, 32, -60, 10, 22, 9, -3, -6,
   -16, 23, 43, 18, 97, -1, 14, 47,
   0, 26, 13, 30, -58, 23, 35, 24,
   88, -62, -59, 59, -108, -60, 12, -1,
   6, -87, 35, 47, 12, -6, -75, 29,
   46, -13, 8, 12, -56, -4, -50, 7,
   -56, 4, 21, 10, 30, 47, -7, 33,
   -18, 37, -11, -4, -9, -12, 0, -38,
   24, 30, 23, 6, -4, 14, -56, 3,
   -18, 7, 34, 24, 4, 8, 24, 4,
   30, -8, -52, 22, 48, 9, -54, 82,
   -16, -16, -22, 12, 17, -15, -22, -5,
   -1, 15, 38, 0, -59, -28, -33, -21,
   6, 14, 30, -5, -62, 31, -14, -63,
   -20, 41, 72, -41, 65, 7, 6, 48,
   20, 81, 45, 13, 67, -16, -1, 2,
   -6, 30, 55, 57, 6, 10, -2, 5,
   3, -2, 8, 30, -9, 16, 36, 41,
   -1, 26, 20, 8, -59, 55, -38, -13,
   -53, 6, -29, -11, -9, -6, -11, -12,
   13, 1, -22, -24, 18, 17, 38, -19,
   -12, -51, -67, 14, 23, -7, -38, -56,
   -50, -54, 42, -26, 13, -9, 7, 31,
   -1, 15, 11, 4, 82, -75, 8, -6,
   36, -38, 18, 8, 3, 1, -110, 76,
   -13, 15, 34, -4, 34, 4, 14, 28,
   52, -17, 5, 15, 0, 17, -34, -7,
   6, -15, -7, -2, 6, -11, 16, -6,
   13, 14, -20, 40, -3, -21, -6, -7,
   -23, 36, -2, 10, -57, -26, -1, -22,
   25, 50, 39, -13, -12, 22, 24, -60,
   -68, -75, 57, 24, 0, -12, -11, -3,
   -5, 28, 0, -73, 58, 16, 72, -79,
   43, 39, -55, 15, 35, 65, -21, -23,
   -20, -25, 29, 48, 15, 15, -24, -37,
   4, 3, -21, -7, -10, 67, -21, 19,
   29, 8, 25, -21, 6, 13, -12, -38,
   14, -48, 2, 21, 4, 40, -29, 43,
   5, -45, 32, 70, 40, 12, 41, 23,
   33, -27, 6, 8, 6, -82, 72, 45,
   77, -55, 12, 33, 71, -97, -36, -28,
   15, -78, 68, 75, 19, -52, 5, 76,
   20, -6, 67, 48, 56, 111, -10, -43,
   -28, -42, 0, 34, -68, 41, -9, 1,
   40, 77, -24, 29, -5, -29, -8, 16,
   -37, -47, 77, -36, -6, 44, 33, -21,
   -26, 28, -14, -29, -7, 24, 24, 10,
   -85, 16, 44, 33, -12, 4, 7, 8,
   102, 34, 29, 11, -46, -3, 50, -38,
   8, -19, -46, 13, -29, -5, -17, -7,
   23, -17, -7, -13, 77, -21, 11, 33,
   9, -84, 6, 13, 34, 33, -44, -11,
   -12, 18, -68, -20, 20, 1, 6, 8,
   3, 9, 107, 14, -5, 94, 106, 66,
   1, 17, -15, -30, 33, 19, 18, -48,
   60, 23, 33, 8, -31, -3, 14, -41,
   1, 19, -25, 28, -86, 22, 13, -105,
